
\data\
ngram 1=1354
ngram 2=3759
ngram 3=507

\1-grams:
-1.940732	</s>
-99	<s>	-0.6636552
-3.207904	―	-0.2020461
-2.906873	　	-0.1458953
-1.066454	、	-0.1503346
-1.149098	。	-0.372023
-3.110994	々	-0.04113352
-2.017572	「	-0.1411433
-2.017572	」	-0.8118466
-3.809963	あ	-0.07629439
-2.633872	ああ	-1.165156
-3.809963	あおり	-0.1151241
-3.809963	あがり	-0.07629439
-3.809963	あきれ	-0.1005494
-3.809963	あげ	-0.09887605
-3.809963	あげよ	-0.1139787
-3.809963	あげる	-0.1151914
-3.809963	あたりまえ	-0.1088206
-3.809963	あちこち	-0.1099797
-2.768571	あっ	-1.064472
-3.809963	あっぱれ	-0.08330165
-3.809963	あて	-0.1011752
-3.207904	あなた	-0.1503494
-2.809963	あの	-0.2384158
-3.508934	ありがたい	-0.0824319
-3.508934	ありがとう	-0.2833882
-2.448236	ある	-0.8801711
-3.207904	あれ	-0.07341507
-3.809963	あん	-0.1124241
-2.53121	い	-0.4576248
-2.768571	いい	-0.211284
-3.809963	いいえ	-0.07629439
-3.332842	いう	-0.3693414
-3.809963	いえ	-0.1151914
-3.508934	いき	-0.1137762
-3.809963	いきり立っ	-0.09887605
-3.332842	いく	-0.06056006
-3.508934	いけ	-0.08024988
-3.809963	いこ	-0.1139787
-3.508934	いちばん	-0.1151242
-3.508934	いっ	-0.08359119
-3.809963	いっそ	-0.07629439
-3.809963	いっぱい	-0.1011752
-3.809963	いつ	-0.1147202
-3.809963	いも	-0.1151914
-3.207904	いや	-0.5113306
-3.809963	いよ	-0.1139787
-3.508934	いよいよ	-0.07622081
-2.241762	いる	-0.3182773
-3.809963	いろ	-0.08330165
-2.53121	う	-0.6267824
-3.809963	うえ	-0.07629439
-3.809963	うずくまり	-0.07629439
-3.332842	うそ	-0.22672
-3.809963	うた	-0.08330165
-3.207904	うち	-0.5362114
-3.809963	うと	-0.1139787
-3.809963	うとうと	-0.07629439
-3.809963	うなずい	-0.1005494
-3.508934	うなずき	-0.2833882
-3.809963	うなり	-0.1002013
-3.809963	うぬぼれ	-0.09887605
-3.809963	うめく	-0.1143833
-3.809963	うるさく	-0.1149222
-3.809963	うれしい	-0.1137087
-3.809963	うれし泣き	-0.1011752
-3.508934	うんと	-0.1145181
-3.508934	えい	-0.07051656
-2.964865	お	-0.1139112
-3.809963	おい	-0.09887605
-3.809963	おいおい	-0.1146529
-3.809963	おけ	-0.1128302
-3.809963	おっしゃる	-0.08330165
-2.508934	おまえ	-0.2829667
-3.809963	おめでとう	-0.08330165
-3.809963	おもしろい	-0.08330165
-3.508934	おら	-0.1133711
-3.207904	おり	-0.1118821
-3.809963	おわび	-0.07629439
-3.508934	お互い	-0.1149222
-3.809963	お子様	-0.1002013
-2.448236	か	-0.622363
-3.809963	かかっ	-0.09887605
-3.809963	かがめ	-0.1005494
-3.207904	かき分け	-0.2641605
-3.110994	かけ	-0.2546408
-3.809963	かじりつい	-0.1005494
-3.809963	かすか	-0.1011752
-3.809963	かすれ	-0.1005494
-3.207904	かた	-0.1656211
-3.809963	かたまり	-0.1147202
-3.809963	かっと	-0.1151914
-3.809963	かなっ	-0.1005494
-3.809963	かなわ	-0.1128302
-3.809963	かの	-0.1151241
-3.809963	かも	-0.1151914
-2.332842	から	-0.192504
-3.809963	からかっ	-0.09887605
-3.809963	かわいい	-0.1151914
-1.823192	が	-0.2758469
-3.809963	がら	-0.1151241
-2.663836	き	-0.9277475
-3.809963	きい	-0.1005494
-3.809963	きかせ	-0.09887605
-3.508934	きっ	-0.3059699
-3.332842	きっと	-0.1143833
-2.69602	きみ	-0.3432169
-3.809963	きらきら	-0.1151914
-3.809963	きり	-0.07629439
-3.809963	きる	-0.1150569
-3.809963	きれい	-0.1124241
-3.809963	くぐり抜け	-0.07629439
-2.906873	ください	-0.9222854
-3.809963	くだらない	-0.08330165
-3.508934	くらい	-0.0943821
-3.809963	くり	-0.1099797
-3.207904	くる	-0.08170576
-3.332842	くるう	-0.08264948
-2.53121	くれ	-0.2768022
-3.508934	くれる	-0.0957211
-3.809963	ぐずぐず	-0.1151914
-3.110994	けれども	-0.1419702
-3.508934	こ	-0.1116109
-3.110994	こい	-0.1836977
-3.508934	こう	-0.1086157
-3.809963	こうむっ	-0.09887605
-2.809963	ここ	-0.3686432
-3.508934	こそ	-0.1151242
-3.809963	こちら	-0.1011752
-3.809963	こっ	-0.1151914
-2.467541	こと	-0.3646138
-2.605844	この	-0.153243
-3.809963	この世	-0.1088206
-3.809963	こめ	-0.09887605
-3.809963	こらえ	-0.07629439
-3.110994	これ	-0.09310974
-3.332842	これから	-0.1133035
-3.809963	これしき	-0.1099797
-3.809963	こんなに	-0.1145855
-3.207904	ご	-0.1145181
-3.031812	ござい	-0.3518573
-3.809963	ごちそう	-0.1150569
-3.332842	ごとく	-0.1146528
-3.809963	ごろりと	-0.1151914
-2.906873	さ	-0.253199
-3.809963	さあ	-0.07629439
-3.332842	さえ	-0.1120854
-3.809963	さける	-0.1151914
-3.809963	ささげ	-0.1005494
-3.508934	ささやき	-0.09663489
-3.809963	さすが	-0.1011752
-3.809963	させ	-0.07629439
-3.809963	さっさと	-0.1145855
-3.508934	さっと	-0.1149222
-3.809963	さて	-0.07629439
-3.809963	さては	-0.07629439
-3.508934	さま	-0.0996438
-3.809963	さらに	-0.1151914
-3.809963	さらば	-0.07629439
-3.809963	さらわ	-0.1139787
-3.809963	さん	-0.09712613
-3.809963	さんざん	-0.1145855
-3.809963	ざ	-0.1149222
-2.024634	し	-1.117841
-3.809963	しかた	-0.09459379
-3.508934	しばらく	-0.0967051
-3.809963	しまえ	-0.08330165
-3.110994	しまっ	-0.3900389
-3.809963	しまわ	-0.1128302
-3.809963	しよ	-0.1139787
-3.809963	しれ	-0.1124241
-3.809963	しわ	-0.09712613
-3.508934	しわがれ	-0.3076432
-3.809963	じだんだ	-0.1151914
-3.508934	じゃ	-0.08024988
-3.809963	すかし	-0.09887605
-3.809963	すがりつく	-0.1137762
-3.809963	すくっ	-0.09887605
-2.906873	すぐ	-0.3981037
-3.809963	すごし	-0.1005494
-3.110994	すでに	-0.1134386
-3.110994	する	-0.08683515
-3.809963	するりと	-0.1151914
-3.508934	すれ	-0.3213423
-3.809963	すれ違っ	-0.1005494
-3.809963	すん	-0.1088206
-3.031812	ず	-0.1191056
-3.508934	ずつ	-0.1150569
-3.809963	ずんずん	-0.1151241
-2.906873	せ	-0.3935689
-3.809963	せい	-0.1149222
-3.809963	せせら笑う	-0.1149895
-3.508934	ぜ	-0.3210725
-3.809963	ぜひとも	-0.07629439
-2.964865	そう	-0.2899744
-3.207904	そうして	-0.2640132
-3.508934	そっと	-0.1150569
-2.487744	その	-0.1489298
-2.633872	それ	-0.1992292
-2.964865	それから	-0.5336623
-3.809963	それでは	-0.07629439
-3.809963	それでも	-0.07629439
-3.508934	そろそろ	-0.1150569
-3.809963	そん	-0.1124241
-3.508934	そんなに	-0.1100478
-2.906873	ぞ	-0.2688743
-1.477525	た	-0.8142899
-2.855721	たい	-0.1281734
-3.809963	たかっ	-0.1005494
-3.809963	たく	-0.1146529
-3.809963	たくさん	-0.09459379
-3.809963	たたい	-0.09887605
-3.809963	たたえ	-0.07629439
-3.207904	ただ	-0.2629068
-2.809963	たち	-0.3617555
-3.508934	たちまち	-0.07599996
-3.332842	たった	-0.2409717
-3.809963	たて	-0.09887605
-3.809963	たぶん	-0.1151914
-3.809963	たまえ	-0.07629439
-3.809963	たまらない	-0.08330165
-3.809963	たまらなく	-0.1151914
-2.855721	ため	-0.3781089
-3.809963	ためらい	-0.07629439
-3.508934	ため息	-0.09339282
-2.906873	たら	-0.9152782
-1.83224	だ	-0.8517388
-3.508934	だいじょうぶ	-0.2833882
-2.964865	だけ	-0.09062541
-3.207904	だし	-0.2672723
-3.508934	だっ	-0.09999232
-3.207904	だって	-0.5113306
-3.332842	だの	-0.351042
-3.809963	だまさ	-0.1139787
-3.809963	だめ	-0.1088206
-3.809963	だらし	-0.108684
-3.031812	だろ	-0.7341892
-3.809963	だんだん	-0.1151914
-3.809963	ちがい	-0.1124241
-3.809963	ちゃんと	-0.1151914
-3.809963	ちょうど	-0.114181
-3.110994	ちょっと	-0.1855672
-3.809963	ちら	-0.1099797
-3.809963	って	-0.1151914
-3.508934	つい	-0.08359119
-3.207904	ついに	-0.0754842
-3.809963	つき	-0.1011752
-3.809963	つく	-0.1137762
-3.809963	つくっ	-0.09887605
-3.809963	つけ	-0.09887605
-3.809963	つつ	-0.1101839
-3.809963	つぶやき	-0.07629439
-3.809963	つぶれ	-0.09887605
-3.110994	つもり	-0.157498
-3.809963	つらい	-0.08330165
-3.809963	つらかっ	-0.1005494
-3.508934	つり上げ	-0.3217467
-1.431566	て	-0.4746172
-3.809963	てれ	-0.09887605
-1.83224	で	-0.4378252
-2.730782	でき	-0.2297923
-3.508934	できる	-0.1132359
-2.855721	です	-1.030463
-2.906873	でも	-0.2066663
-1.917869	と	-0.06307343
-3.332842	という	-0.07533673
-3.809963	とおり	-0.07629439
-3.809963	とかいう	-0.1151241
-2.964865	とき	-0.2086003
-3.809963	とく	-0.07629439
-3.508934	ところ	-0.09957405
-3.110994	として	-0.1139112
-3.508934	とともに	-0.07607359
-3.809963	とどまっ	-0.09887605
-3.809963	ともに	-0.1151241
-3.809963	とんでもない	-0.1150569
-2.964865	どう	-0.383532
-3.809963	どうか	-0.1149222
-3.809963	どうせ	-0.1146529
-3.809963	どうどう	-0.1099797
-3.809963	どうにか	-0.1149895
-3.809963	どき	-0.1146529
-3.809963	どっこい	-0.1151914
-3.809963	どっと	-0.1147876
-3.809963	ども	-0.07629439
-3.809963	どよめい	-0.1005494
-3.508934	どんな	-0.1151242
-2.186714	な	-0.1805162
-2.186714	ない	-0.6530086
-2.730782	なかっ	-0.9768
-3.809963	なかなか	-0.1151914
-2.964865	ながら	-0.07474636
-2.855721	なく	-0.1772707
-2.964865	なけれ	-0.3869177
-3.809963	なぜ	-0.1151241
-3.809963	なぞ	-0.09712613
-3.809963	なだめ	-0.07629439
-2.579515	なっ	-0.9263198
-3.508934	など	-0.1097754
-3.332842	なに	-0.06902258
-3.508934	なにか	-0.1149895
-3.809963	なにもかも	-0.07629439
-2.53121	なら	-0.6220676
-3.508934	なり	-0.2833882
-3.110994	なる	-0.1071104
-3.110994	なん	-0.3942872
-3.508934	なんだか	-0.2833882
-1.496096	に	-0.1534253
-3.809963	にぎやか	-0.1088206
-3.809963	について	-0.1150569
-3.809963	に対して	-0.09712613
-2.253661	ぬ	-0.456441
-3.508934	ぬる	-0.1135737
-3.809963	ね	-0.08330165
-1.332842	の	-0.1711612
-3.809963	のそのそ	-0.1149222
-3.809963	のに	-0.08330165
-3.809963	のみ	-0.07629439
-3.809963	のん	-0.1088206
-3.508934	のんき	-0.1118821
-1.38836	は	-0.3457533
-3.809963	はい	-0.07629439
-3.809963	はさん	-0.1088206
-3.508934	はず	-0.3159144
-3.809963	はたと	-0.07629439
-3.809963	はっ	-0.1005494
-3.809963	はで	-0.1124241
-3.809963	はね	-0.1151241
-3.809963	はばかる	-0.1151914
-3.809963	はらわ	-0.1005494
-3.809963	はり	-0.1151241
-3.110994	はりつけ	-0.2366902
-3.809963	はるか	-0.1151914
-3.809963	はるばる	-0.1143159
-2.633872	ば	-0.3949545
-3.809963	ばか	-0.1124241
-3.809963	ばかばかしい	-0.08330165
-3.110994	ばかり	-0.1076118
-3.809963	ばら	-0.1011752
-3.809963	ぱ	-0.1150569
-3.508934	ひしと	-0.1151242
-3.809963	ひっそり	-0.1111357
-3.809963	ひとつ	-0.1150569
-3.809963	ひと口	-0.1151914
-3.809963	ひと眠り	-0.1111357
-3.809963	ひどく	-0.1151914
-3.809963	ひょいと	-0.07629439
-3.809963	ひょっとしたら	-0.07629439
-3.809963	ひるむ	-0.1151914
-3.809963	ふい	-0.1099797
-3.809963	ふてくされ	-0.1005494
-3.809963	ふと	-0.1151241
-3.809963	ふり	-0.1111357
-3.809963	ふるさと	-0.08330165
-3.809963	ぶと	-0.1149222
-3.809963	ぶどう	-0.09459379
-3.508934	ぶらぶら	-0.3219487
-3.809963	ぶり	-0.1088206
-3.809963	ぶる	-0.1149222
-3.031812	へ	-0.220264
-3.508934	べき	-0.1149895
-3.508934	ほう	-0.103324
-3.332842	ほか	-0.2090203
-3.809963	ほくそ笑ん	-0.1088206
-3.809963	ほしい	-0.08330165
-3.508934	ほっと	-0.1109999
-3.809963	ほとんど	-0.1151241
-3.207904	ほど	-0.07952008
-3.809963	ほどか	-0.1139787
-3.809963	ほほえみ	-0.07629439
-3.809963	ほんの	-0.1149222
-3.809963	ぽつりぽつり	-0.1149895
-3.809963	まい	-0.1137087
-3.508934	まえ	-0.0536383
-3.809963	まごつい	-0.1005494
-3.809963	まさか	-0.1101159
-3.809963	まさしく	-0.1139787
-3.809963	まさに	-0.1150569
-3.207904	まし	-0.5355856
-3.809963	まじまじ	-0.1099797
-2.69602	ます	-1.155157
-3.809963	ますます	-0.1151914
-3.809963	まず	-0.07629439
-3.332842	ませ	-0.2390802
-3.207904	また	-0.1669496
-3.031812	まだ	-0.2294387
-3.809963	まだまだ	-0.1151241
-3.809963	まっすぐ	-0.1011752
-3.809963	まっただ中	-0.1002013
-2.730782	まで	-0.2535112
-3.809963	まとも	-0.1011752
-3.809963	まどろん	-0.1088206
-3.110994	まま	-0.1639258
-3.809963	まもなく	-0.1151914
-3.809963	み	-0.1005494
-3.809963	みごと	-0.07629439
-3.332842	みじん	-0.2225205
-3.809963	みせる	-0.08330165
-3.332842	みる	-0.08869845
-3.809963	みれ	-0.1142485
-3.809963	むち打ち	-0.07629439
-3.809963	むんむん	-0.1151914
-3.332842	め	-0.2064005
-3.809963	めいめい	-0.1151241
-3.809963	めまい	-0.1002013
-1.934902	も	-0.2820811
-2.809963	もう	-0.1974028
-3.809963	もし	-0.1101159
-3.809963	もた	-0.1147202
-3.809963	もたげ	-0.07629439
-3.508934	もち	-0.1149895
-3.508934	もっ	-0.3059699
-3.508934	もっと	-0.07622081
-3.809963	もともと	-0.1151914
-2.809963	もの	-0.1497432
-3.508934	もはや	-0.1151242
-3.809963	もみ手	-0.1111357
-3.332842	や	-0.1145855
-3.332842	やがて	-0.1145181
-3.809963	やけに	-0.1151241
-3.809963	やっ	-0.1005494
-3.508934	やってき	-0.3076432
-3.809963	やっと	-0.07629439
-3.508934	やつ	-0.1150569
-3.508934	やはり	-0.07614721
-3.809963	やみ	-0.07629439
-3.332842	やめ	-0.3736237
-3.508934	やら	-0.1143833
-3.332842	やり	-0.3894005
-3.031812	やる	-0.2915069
-3.332842	やろ	-0.3887263
-3.809963	ゆえ	-0.07629439
-3.332842	ゆく	-0.08177843
-3.809963	ゆっくり	-0.1151914
-3.809963	ゆらゆら	-0.1151914
-2.906873	よ	-0.5161568
-2.855721	よい	-0.2002101
-2.69602	よう	-1.045166
-3.809963	よかっ	-0.1005494
-3.809963	よかろ	-0.1139787
-3.332842	よき	-0.3887938
-3.809963	よくも	-0.1101159
-3.809963	よくよく	-0.1151914
-3.332842	より	-0.2415779
-3.809963	よろしい	-0.07629439
-3.809963	よろめい	-0.09887605
-3.332842	よろよろ	-0.1093664
-3.207904	ら	-0.1503494
-3.508934	らしい	-0.08308437
-2.855721	られ	-0.3593146
-3.809963	られる	-0.09459379
-2.53121	れ	-0.6043487
-2.855721	れる	-0.3663338
-3.332842	わい	-0.1940367
-3.809963	わかっ	-0.09887605
-3.332842	わから	-0.3875778
-3.508934	わが身	-0.0856125
-3.809963	わけ	-0.09459379
-2.906873	わし	-0.1796924
-3.809963	わび	-0.1005494
-3.809963	わめい	-0.1005494
-1.467541	を	-0.1060495
-3.809963	をもって	-0.09712613
-3.110994	ん	-0.07570531
-3.809963	アレキス	-0.1147876
-3.332842	クス	-0.3693414
-3.332842	シ	-0.3898045
-2.633872	セリヌンティウス	-0.2356573
-3.508934	ゼウス	-0.100619
-3.332842	ディオニス	-0.2021463
-3.508934	フィロストラトス	-0.07636797
-3.508934	マント	-0.3072951
-1.92915	メロス	-0.7132957
-3.332842	ラ	-0.3898045
-2.809963	一	-0.4421716
-3.332842	一つ	-0.04888333
-3.809963	一事	-0.1088206
-3.809963	一切	-0.09459379
-3.508934	一刻	-0.3170735
-3.809963	一団	-0.09459379
-3.809963	一家	-0.1101839
-3.809963	一度	-0.07629439
-3.809963	一挙	-0.1011752
-3.809963	一撃	-0.07629439
-3.809963	一斉	-0.1011752
-3.508934	一気に	-0.3220834
-3.809963	一片	-0.09459379
-3.809963	一生	-0.114181
-3.809963	一睡	-0.1101839
-3.809963	一緒	-0.1011752
-3.508934	万	-0.322218
-2.730782	三	-0.3623485
-3.809963	三里	-0.1151241
-3.508934	上げ	-0.3059699
-3.809963	上っ	-0.09887605
-3.809963	上り	-0.07629439
-3.809963	下っ	-0.1005494
-3.809963	下流	-0.1011752
-3.809963	不	-0.1151914
-3.508934	不信	-0.3016876
-3.508934	不吉	-0.319518
-3.809963	不名誉	-0.09459379
-3.809963	不安	-0.1011752
-3.809963	不幸	-0.1124241
-3.809963	与え	-0.09887605
-3.809963	世の中	-0.09459379
-3.809963	世界	-0.09459379
-3.809963	世継ぎ	-0.1002013
-3.809963	両	-0.1150569
-3.508934	両手	-0.3159144
-3.809963	両足	-0.1011752
-3.508934	中	-0.1067675
-3.809963	中途	-0.1088206
-3.809963	久しく	-0.1151914
-3.809963	乱れ	-0.1151914
-3.508934	乱心	-0.1072474
-3.508934	事情	-0.09339282
-2.906873	二	-0.3034402
-3.809963	二里	-0.1151241
-3.809963	五臓	-0.108684
-3.332842	亭主	-0.08783945
-2.29145	人	-0.4872134
-3.809963	人々	-0.09712613
-3.809963	人一倍	-0.1011752
-3.809963	人種	-0.1088206
-3.332842	人質	-0.1001316
-3.332842	人間	-0.05634321
-2.605844	今	-0.3751382
-3.508934	今宵	-0.07622081
-3.508934	今度	-0.30422
-3.207904	今日	-0.2852165
-3.809963	今頃	-0.09712613
-3.809963	仕事	-0.1002013
-3.809963	他	-0.1011752
-3.809963	代わり	-0.1011752
-3.809963	仰い	-0.1088206
-3.809963	仰天	-0.1147202
-3.508934	仲間	-0.07981215
-3.809963	伏し	-0.07629439
-3.809963	会	-0.1151914
-3.809963	会い	-0.07629439
-3.809963	会っ	-0.1005494
-3.809963	会わ	-0.1144507
-3.809963	会話	-0.1002013
-3.809963	会釈	-0.1111357
-3.809963	似合い	-0.1124241
-3.809963	低	-0.1146529
-3.809963	低く	-0.1149895
-3.332842	体	-0.2201226
-2.964865	何	-0.3165008
-2.768571	信じ	-0.5953935
-3.809963	信ずる	-0.1137762
-3.110994	信実	-0.1409997
-3.809963	信念	-0.1002013
-3.332842	信頼	-0.2272073
-3.809963	倍	-0.1101839
-3.508934	倒し	-0.07622081
-3.809963	倒れ	-0.1151914
-3.809963	倒れる	-0.09459379
-3.809963	偉い	-0.1144507
-3.809963	偉大	-0.1124241
-3.809963	傾き	-0.1149222
-3.508934	僅か	-0.1143833
-3.809963	優しい	-0.1150569
-3.809963	優しく	-0.1151914
-3.110994	兄	-0.2035448
-3.809963	先	-0.1002013
-3.508934	先刻	-0.0536383
-3.508934	光	-0.0949464
-3.809963	光っ	-0.09887605
-3.508934	入っ	-0.3059699
-3.809963	入れ	-0.09887605
-3.508934	全	-0.1150569
-3.809963	全く	-0.1148549
-3.809963	全て	-0.1002013
-3.809963	全体	-0.108684
-3.809963	全身	-0.1151914
-3.508934	全部	-0.1001316
-3.332842	六	-0.2188478
-3.809963	内気	-0.1124241
-3.809963	再び	-0.1151914
-3.809963	処し	-0.09887605
-3.809963	処刑	-0.1144507
-2.964865	出	-0.442601
-3.809963	出かける	-0.08330165
-3.110994	出発	-0.1671747
-3.809963	分	-0.1151241
-3.809963	刑	-0.1151241
-3.207904	刑場	-0.1710572
-3.809963	列席	-0.1111357
-3.508934	初め	-0.09501688
-3.809963	初めて	-0.1143833
-3.809963	初夏	-0.07629439
-3.508934	到着	-0.09691567
-3.809963	到達	-0.1111357
-3.809963	刻	-0.1151241
-3.809963	刻々	-0.1011752
-3.809963	刻み込ま	-0.1139787
-3.809963	刻限	-0.1144507
-3.332842	前	-0.3759228
-3.809963	前方	-0.09459379
-3.809963	前進	-0.1151914
-3.207904	力	-0.273773
-3.809963	力いっぱい	-0.1011752
-3.508934	助け	-0.08424192
-3.508934	努め	-0.08359119
-3.809963	努力	-0.1111357
-3.809963	勇	-0.07629439
-3.207904	勇者	-0.03259238
-3.809963	動い	-0.09887605
-3.508934	動け	-0.3217467
-3.809963	勝っ	-0.1005494
-3.809963	勝手	-0.1011752
-3.809963	勢	-0.1151914
-3.809963	匹	-0.09459379
-3.110994	十	-0.1863085
-3.809963	十分	-0.09459379
-3.809963	十字架	-0.1011752
-3.809963	十里	-0.09459379
-3.809963	午前	-0.07629439
-3.809963	午後	-0.09459379
-3.809963	半ば	-0.1011752
-3.809963	卑劣	-0.1002013
-3.809963	南無	-0.1144507
-3.809963	単純	-0.1124241
-3.809963	及ぶ	-0.08330165
-2.554691	友	-0.175381
-3.508934	友人	-0.09353428
-3.508934	友達	-0.1076584
-3.809963	反駁	-0.1111357
-3.809963	取り直し	-0.09887605
-3.809963	取り返し	-0.07629439
-3.809963	受け	-0.09887605
-3.508934	口	-0.1067675
-3.809963	口々	-0.1011752
-3.508934	叫び	-0.09971352
-3.508934	叫ん	-0.3159144
-3.809963	召さ	-0.1139787
-3.508934	台	-0.308269
-3.809963	叱っ	-0.09887605
-3.809963	叱り	-0.1147876
-3.809963	右	-0.1149222
-3.508934	同じ	-0.1136412
-3.809963	同時に	-0.1149222
-3.508934	名誉	-0.3072951
-3.508934	吏	-0.1003406
-3.809963	向かっ	-0.09887605
-3.809963	向こう	-0.1011752
-3.809963	吸い込ま	-0.1146529
-3.809963	吹き	-0.07629439
-3.809963	呆然	-0.07629439
-3.809963	呼び	-0.1151914
-3.809963	呼ぶ	-0.108684
-3.332842	呼吸	-0.2215348
-2.964865	命	-0.2429114
-3.809963	命じ	-0.09887605
-3.809963	命乞い	-0.1151241
-3.508934	命令	-0.09353428
-3.809963	哀れ	-0.1099797
-3.809963	哀願	-0.1111357
-3.809963	品々	-0.1002013
-3.809963	問いつめ	-0.1005494
-3.332842	問題	-0.3835682
-3.809963	喉	-0.108684
-3.809963	喜色	-0.1002013
-3.809963	嘲笑	-0.1111357
-3.809963	噴き	-0.1147876
-3.809963	四肢	-0.1002013
-3.809963	回し	-0.07629439
-3.809963	回復	-0.1151241
-3.809963	困憊	-0.09459379
-3.809963	囲み	-0.1132359
-3.809963	国王	-0.09712613
-3.809963	地	-0.09712613
-3.809963	地上	-0.1088206
-3.809963	地位	-0.1002013
-3.809963	地平線	-0.1011752
-3.809963	垂れ	-0.09887605
-3.508934	報い	-0.100062
-3.508934	塔	-0.322218
-3.809963	士	-0.1149222
-2.855721	声	-0.4069842
-3.508934	夕日	-0.09985294
-3.809963	外	-0.09459379
-3.110994	夜	-0.03656153
-3.809963	夜明け	-0.1144507
-3.110994	夢	-0.2484315
-3.809963	夢見心地	-0.1088206
-3.809963	大き	-0.1124241
-3.508934	大きい	-0.1144507
-3.508934	大きく	-0.1139787
-3.809963	大きな	-0.1151914
-3.332842	大事	-0.1116787
-3.809963	大切	-0.1124241
-3.508934	大声	-0.1087523
-3.809963	大蛇	-0.09459379
-3.809963	大路	-0.1002013
-3.809963	大雨	-0.1099797
-3.508934	天	-0.05979642
-3.332842	太陽	-0.08228675
-3.508934	夫婦	-0.0824319
-3.809963	奥底	-0.108684
-3.809963	奪い取っ	-0.09887605
-3.809963	女房	-0.1101839
-3.809963	奸佞	-0.1151241
-3.809963	好き	-0.1124241
-3.809963	妄想	-0.1088206
-2.730782	妹	-0.1534774
-3.508934	始め	-0.08359119
-3.332842	姿	-0.08017693
-3.809963	威厳	-0.1002013
-3.809963	娘	-0.1151914
-3.207904	婿	-0.1695946
-3.809963	嫌い	-0.1124241
-3.809963	子	-0.09459379
-3.809963	存する	-0.1151241
-3.809963	季節	-0.1144507
-3.809963	孤独	-0.108684
-3.809963	守り	-0.1143833
-3.508934	守る	-0.1144507
-3.809963	守れ	-0.08330165
-3.809963	定まっ	-0.1005494
-3.809963	定法	-0.1088206
-3.508934	宝	-0.1071104
-3.809963	宣誓	-0.108684
-3.508934	宴席	-0.09247218
-3.031812	家	-0.1142703
-3.809963	宿し	-0.1005494
-3.508934	寂しい	-0.08170578
-3.809963	寝	-0.1151914
-3.809963	寝転がっ	-0.1005494
-3.809963	察し	-0.1005494
-3.809963	対岸	-0.09459379
-3.809963	尋ね	-0.1005494
-3.508934	小さく	-0.07614721
-3.809963	小屋	-0.1011752
-3.809963	小川	-0.1002013
-3.809963	小歌	-0.1002013
-3.809963	小耳	-0.1011752
-3.508934	小降り	-0.308269
-3.809963	小鳥	-0.108684
-3.110994	少し	-0.0698449
-3.809963	少しく	-0.1151914
-3.809963	少女	-0.108684
-3.809963	尽き	-0.1005494
-3.809963	尽くし	-0.09887605
-3.809963	山	-0.09459379
-3.207904	山賊	-0.07088923
-3.809963	山越え	-0.07629439
-3.809963	岩	-0.09459379
-3.207904	峠	-0.5352375
-3.809963	川	-0.1002013
-3.809963	川岸	-0.1011752
-3.809963	巡邏	-0.09459379
-3.809963	巣くっ	-0.1005494
-3.809963	差し出す	-0.1137762
-3.809963	巻き	-0.07629439
-3.809963	希代	-0.09459379
-3.332842	希望	-0.2287353
-3.809963	席	-0.1002013
-2.855721	帰っ	-0.9836174
-3.809963	帰り	-0.1002013
-3.332842	平和	-0.2201226
-3.809963	平気	-0.1088206
-3.508934	年	-0.1149895
-3.809963	幹	-0.1011752
-3.809963	幾分	-0.1151241
-3.508934	幾度	-0.1084107
-3.809963	床	-0.1011752
-3.207904	度	-0.1668022
-3.809963	引きずら	-0.1139787
-3.809963	引きずる	-0.1149222
-3.508934	引き出さ	-0.3210725
-3.809963	引き立て	-0.07629439
-3.809963	弟	-0.1011752
-3.809963	弟子	-0.1088206
-3.809963	張り	-0.1151914
-3.809963	強い	-0.1151914
-3.809963	強く	-0.1111357
-3.809963	影	-0.1146529
-3.207904	彼	-0.1503494
-3.809963	待ち伏せ	-0.1111357
-3.031812	待っ	-0.7190865
-3.809963	待つ	-0.1137762
-3.508934	待て	-0.2903955
-3.809963	律儀	-0.1124241
-3.809963	後	-0.1151914
-3.809963	徐々に	-0.1151241
-3.809963	徒	-0.1088206
-3.809963	御免	-0.1151914
-2.964865	心	-0.203662
-3.809963	心構え	-0.1124241
-3.508934	心臓	-0.3072951
-3.508934	必ず	-0.2833882
-3.508934	必死	-0.08783947
-3.809963	必要	-0.1101839
-3.508934	忘れ	-0.3059699
-3.809963	忠誠	-0.1002013
-3.809963	思い	-0.1088206
-3.809963	思うつぼ	-0.1088206
-3.809963	思え	-0.1142485
-3.332842	思っ	-0.375297
-3.332842	急い	-0.2288739
-3.508934	急ぎ	-0.308269
-3.809963	急ぐ	-0.1151914
-3.809963	急げ	-0.07629439
-3.809963	怪しく	-0.1150569
-3.809963	恐ろしく	-0.1151241
-3.809963	恥	-0.1088206
-3.809963	恥ず	-0.1151241
-3.809963	恨み	-0.1151914
-3.809963	息	-0.1002013
-3.809963	悔しい	-0.09459379
-3.809963	悔しく	-0.07629439
-3.809963	悔し泣き	-0.1011752
-3.809963	悠々	-0.1099797
-3.332842	悪い	-0.3896698
-3.809963	悪びれ	-0.1148549
-3.508934	悪徳	-0.1085474
-3.508934	悪心	-0.1001316
-3.809963	悪魔	-0.09459379
-3.809963	悲しい	-0.1149895
-3.809963	情	-0.1150569
-3.809963	情け	-0.1002013
-3.809963	情けない	-0.08330165
-3.207904	愛	-0.2979359
-3.809963	愛する	-0.1140462
-3.508934	感じ	-0.06017843
-3.809963	態	-0.1124241
-3.809963	憎ん	-0.1088206
-3.809963	憐愍	-0.1002013
-3.809963	憫笑	-0.1111357
-3.809963	懐中	-0.1132359
-3.332842	手	-0.2246953
-3.508934	打た	-0.3210725
-3.809963	打ち	-0.1151241
-3.809963	打ち破る	-0.1146529
-3.809963	打っ	-0.1005494
-3.809963	払い	-0.07629439
-3.809963	承諾	-0.1111357
-3.809963	投げ出し	-0.09887605
-3.809963	投じ	-0.07629439
-3.809963	折っ	-0.1005494
-3.809963	折り曲げ	-0.07629439
-3.809963	抜け	-0.09887605
-3.809963	抱い	-0.09887605
-3.809963	抱き合い	-0.07629439
-3.809963	抱き締め	-0.1005494
-3.508934	抱擁	-0.1141136
-3.809963	押し	-0.09887605
-3.809963	押しのけ	-0.07629439
-3.809963	押し寄せ	-0.1151914
-3.809963	押し流さ	-0.1139787
-3.809963	拒め	-0.1142485
-3.809963	拳	-0.1088206
-3.809963	持ち物	-0.1151241
-3.809963	挙げ	-0.1151914
-3.809963	挙げる	-0.08330165
-3.508934	振っ	-0.3059699
-3.809963	振り上げ	-0.1005494
-3.809963	捕まえ	-0.09887605
-3.809963	捕縛	-0.1147202
-3.809963	揺すぶっ	-0.09887605
-3.809963	撃ち	-0.1151241
-3.508934	支度	-0.08927019
-3.809963	放さ	-0.1128302
-3.809963	放し	-0.09887605
-3.809963	放せ	-0.08330165
-3.508934	放っ	-0.3059699
-3.809963	放免	-0.1149222
-3.809963	政治	-0.108684
-3.809963	故郷	-0.1148549
-3.809963	敏感	-0.1088206
-3.508934	救う	-0.0939584
-3.508934	教え	-0.3059699
-3.809963	斜陽	-0.09712613
-3.809963	断ち割っ	-0.09887605
-3.809963	新婦	-0.09459379
-3.809963	新郎	-0.1151914
-3.809963	旅人	-0.1099797
-2.633872	日	-0.2880268
-3.809963	日暮れ	-0.1144507
-3.332842	日没	-0.3891983
-3.508934	日間	-0.09409968
-3.809963	日限	-0.1002013
-3.809963	早い	-0.1151241
-3.809963	早かっ	-0.1005494
-3.809963	早く	-0.1138437
-3.508934	昇っ	-0.3059699
-3.508934	明くる日	-0.3016876
-3.110994	明日	-0.1011066
-3.809963	星	-0.1088206
-3.809963	昨日	-0.09459379
-3.332842	時	-0.2168573
-3.809963	暑く	-0.1141136
-3.508934	暗い	-0.09452324
-3.207904	暮らし	-0.1676124
-3.031812	暴君	-0.2697171
-3.809963	暴虐	-0.09459379
-3.508934	最も	-0.07622081
-3.332842	最後	-0.3693414
-3.508934	望み	-0.08177844
-3.809963	望ん	-0.1088206
-3.809963	期待	-0.1111357
-3.809963	木々	-0.09459379
-3.809963	未明	-0.1101159
-3.508934	未練	-0.07555792
-3.809963	本当に	-0.1146529
-2.855721	村	-0.1729065
-3.332842	村人	-0.3893331
-3.332842	来	-0.2262322
-3.809963	来れ	-0.1142485
-3.809963	枝	-0.1101839
-3.809963	柱	-0.108684
-3.809963	根	-0.1101839
-3.809963	根性	-0.108684
-3.508934	棍棒	-0.3072951
-3.809963	森	-0.1002013
-3.508934	楼	-0.0902689
-3.809963	楽しみ	-0.1088206
-2.964865	様	-0.3195856
-3.207904	様子	-0.2816948
-3.809963	横切り	-0.07629439
-3.809963	樹木	-0.09459379
-3.809963	橋	-0.1002013
-3.809963	橋桁	-0.1002013
-3.809963	欲しい	-0.09459379
-3.809963	欺い	-0.1005494
-3.809963	欺か	-0.1144507
-3.809963	欺く	-0.1149222
-3.508934	歌	-0.3072951
-3.508934	歌い	-0.07599996
-3.809963	歌っ	-0.09887605
-3.809963	歓喜	-0.1011752
-3.809963	歓声	-0.108684
-3.809963	歔欷	-0.09459379
-3.809963	止まっ	-0.1005494
-3.809963	正当	-0.09459379
-3.332842	正直	-0.2387416
-3.332842	正義	-0.2209705
-3.809963	歩	-0.1148549
-3.031812	歩い	-0.6391055
-3.809963	歩き	-0.1149895
-3.809963	歩ける	-0.08330165
-3.809963	歩こ	-0.1139787
-3.508934	歳	-0.04121331
-3.809963	死	-0.1151241
-3.332842	死な	-0.3894678
-3.207904	死ぬ	-0.09225943
-3.508934	死ん	-0.1022856
-3.809963	死刑	-0.1011752
-3.809963	死力	-0.1002013
-3.809963	残	-0.1151241
-3.809963	残し	-0.09887605
-3.809963	残ら	-0.1148549
-3.809963	残る	-0.1149895
-3.809963	残虐	-0.1124241
-3.110994	殴っ	-0.3300006
-3.809963	殴り	-0.1151241
-3.110994	殴れ	-0.956395
-2.964865	殺さ	-0.4723808
-2.906873	殺し	-0.4493575
-3.508934	殺す	-0.09402905
-3.809963	母	-0.1101839
-3.809963	民	-0.09459379
-3.031812	気	-0.1826233
-3.809963	気がかり	-0.1101839
-3.809963	気がつか	-0.1124241
-3.809963	気の毒	-0.1088206
-3.809963	気味	-0.108684
-3.508934	気持ち	-0.09353428
-3.332842	水	-0.07163364
-3.809963	水源	-0.1151914
-3.508934	永遠	-0.308269
-3.809963	氾濫	-0.1111357
-3.809963	汗	-0.1002013
-3.332842	決して	-0.1109319
-3.809963	決まっ	-0.09887605
-3.508934	決意	-0.3182296
-3.207904	沈ま	-0.5478664
-3.508934	沈む	-0.2903955
-3.508934	沈ん	-0.3159144
-3.809963	没し	-0.07629439
-3.809963	泉	-0.1011752
-3.207904	波	-0.1574878
-3.508934	泣い	-0.08359119
-3.508934	泣き	-0.1121532
-3.809963	泳い	-0.1088206
-3.508934	泳ぎ	-0.1151242
-3.809963	流す	-0.1143833
-3.110994	流れ	-0.1192383
-3.809963	流れる	-0.1150569
-3.809963	浮かべ	-0.09887605
-3.809963	浴びせ	-0.1005494
-3.809963	海	-0.09459379
-3.809963	消え	-0.09887605
-3.809963	消えよ	-0.1139787
-3.809963	涙	-0.1002013
-3.809963	深い	-0.1151241
-3.809963	深かっ	-0.1005494
-3.809963	深く	-0.1151914
-3.809963	深夜	-0.07629439
-3.809963	清らか	-0.1124241
-3.809963	清水	-0.108684
-3.809963	渡し守	-0.09459379
-3.809963	渦巻き	-0.1151914
-3.809963	湧き出	-0.09887605
-3.809963	満天	-0.09459379
-3.809963	満身	-0.09459379
-3.809963	満面	-0.1011752
-3.809963	滾	-0.1149222
-3.809963	潜り込ん	-0.1088206
-3.809963	潺	-0.1149222
-3.809963	澄まし	-0.1005494
-3.809963	激しく	-0.1151914
-3.508934	激怒	-0.3182296
-3.809963	激流	-0.108684
-3.031812	濁流	-0.1762548
-3.809963	灼熱	-0.09459379
-3.809963	災難	-0.07629439
-3.809963	無二	-0.09459379
-3.809963	無心	-0.1011752
-3.809963	無理	-0.1011752
-3.809963	無言	-0.1088206
-3.508934	無駄	-0.09452324
-3.809963	照っ	-0.09887605
-3.508934	照覧	-0.07599996
-3.809963	燃える	-0.1149222
-3.809963	父	-0.1101839
-3.207904	牧人	-0.0688729
-3.809963	犬	-0.1002013
-3.809963	狂っ	-0.1005494
-3.809963	独りよがり	-0.1137087
-3.809963	独り合点	-0.1111357
-3.809963	狭い	-0.1148549
-3.809963	猛	-0.1151914
-3.809963	猛然	-0.1151914
-3.809963	獅子奮迅	-0.09459379
-2.53121	王	-0.2899567
-3.110994	王城	-0.4072058
-3.207904	王様	-0.0681987
-3.809963	生かし	-0.09887605
-3.809963	生きる	-0.08330165
-3.809963	生き延び	-0.09887605
-3.332842	生まれ	-0.2101795
-3.809963	生意気	-0.1124241
-3.809963	生涯	-0.1149895
-3.508934	用事	-0.09339282
-3.809963	申し	-0.1143833
-2.730782	男	-0.1139969
-3.809963	男泣き	-0.1011752
-2.663836	町	-0.2115266
-3.809963	番	-0.1002013
-3.809963	疑い	-0.1011752
-3.332842	疑う	-0.2196273
-3.332842	疑っ	-0.2101795
-3.809963	疑わ	-0.1148549
-3.809963	疑惑	-0.09459379
-3.332842	疲れ	-0.2253247
-3.207904	疲労	-0.110864
-3.809963	疾風	-0.09459379
-3.809963	発揮	-0.1111357
-3.508934	登り	-0.07614721
-3.809963	百	-0.1151914
-3.508934	皆	-0.0943821
-3.809963	皇后	-0.1147876
-3.031812	目	-0.267054
-3.809963	目撃	-0.1111357
-3.809963	相	-0.1151914
-3.809963	相手	-0.1011752
-3.809963	眉間	-0.09459379
-3.508934	真	-0.3016876
-3.809963	真っ裸	-0.1151241
-3.508934	真昼	-0.1011057
-3.809963	真紅	-0.09459379
-3.809963	眠っ	-0.1005494
-3.508934	眠り	-0.1005494
-3.809963	眺め	-0.1151914
-3.809963	着い	-0.1005494
-3.809963	着る	-0.108684
-3.809963	瞬時	-0.1151914
-3.809963	瞬間	-0.07629439
-3.809963	矢	-0.09459379
-3.809963	知っ	-0.09887605
-3.809963	知ら	-0.1147202
-3.809963	知らせ	-0.09887605
-3.809963	短刀	-0.1088206
-3.809963	短剣	-0.108684
-3.332842	石工	-0.08805437
-3.809963	破る	-0.1147876
-3.809963	破壊	-0.1111357
-3.809963	磔刑	-0.1011752
-3.207904	祝宴	-0.15142
-3.110994	神	-0.3562529
-3.809963	祭壇	-0.1002013
-1.92915	私	-1.141811
-3.809963	私欲	-0.09459379
-3.809963	秘密	-0.1088206
-3.809963	空	-0.1002013
-3.809963	空っぽ	-0.1088206
-3.809963	空虚	-0.1124241
-3.809963	突入	-0.1111357
-3.809963	突然	-0.07629439
-3.508934	突破	-0.3182296
-3.809963	立ちすくん	-0.1088206
-3.809963	立ち上がる	-0.1137762
-3.809963	立ち去り	-0.07629439
-3.809963	立ち止まり	-0.1147876
-3.809963	立っ	-0.09887605
-3.508934	立て	-0.07563163
-3.508934	竹馬	-0.3016876
-3.809963	笑い	-0.07629439
-3.809963	笑お	-0.1139787
-3.207904	笑っ	-0.2717517
-3.508934	笑わ	-0.3217467
-3.809963	笛	-0.1002013
-3.031812	答え	-0.2536414
-3.809963	精	-0.1101839
-3.508934	精いっぱい	-0.308269
-3.809963	精神	-0.1101839
-3.031812	約束	-0.2686834
-3.031812	結婚式	-0.2703066
-3.809963	絞め殺し	-0.09887605
-3.508934	続け	-0.3059699
-3.809963	緋	-0.09459379
-3.332842	縄	-0.0812695
-3.809963	繋	-0.1151914
-3.508934	罪	-0.07555792
-3.508934	置い	-0.3059699
-3.110994	羊	-0.1042219
-3.809963	群	-0.09459379
-2.964865	群衆	-0.203662
-3.809963	義務	-0.1151914
-3.207904	老爺	-0.15142
-3.332842	考え	-0.2101795
-3.207904	者	-0.07937397
-3.508934	耳	-0.0856125
-3.809963	耳打ち	-0.1111357
-3.508934	聞い	-0.3059699
-3.809963	聞か	-0.1128302
-3.809963	聞き入れ	-0.09887605
-3.332842	聞こえ	-0.375297
-3.809963	肉体	-0.09459379
-3.809963	肩	-0.1002013
-3.809963	背後	-0.1132359
-3.809963	背負っ	-0.1005494
-3.809963	胴震い	-0.1002013
-3.332842	胸	-0.06344979
-3.332842	腕	-0.2122009
-3.809963	膝	-0.1002013
-3.809963	膨れ	-0.1151914
-3.809963	臣	-0.09459379
-3.809963	臣下	-0.09459379
-3.031812	自分	-0.3095798
-3.508934	自身	-0.07878908
-3.809963	舟	-0.09712613
-3.207904	花婿	-0.1665072
-3.332842	花嫁	-0.06010202
-3.332842	若い	-0.1094346
-3.508934	若い衆	-0.08141498
-3.809963	茫然	-0.1099797
-3.809963	草原	-0.1011752
-3.809963	荒い	-0.1150569
-3.508934	荒れ	-0.3221507
-3.809963	華やか	-0.1011752
-3.809963	萎え	-0.09887605
-3.508934	落ち	-0.3059699
-3.809963	落ち着い	-0.09887605
-3.809963	落とし	-0.1151914
-3.508934	葉	-0.09593215
-3.809963	蒸し暑い	-0.09459379
-3.809963	蒼白	-0.1088206
-3.809963	薄明	-0.09459379
-3.809963	虫	-0.1149895
-3.809963	血	-0.108684
-3.809963	血液	-0.1147876
-3.508934	行か	-0.3218814
-3.508934	行き	-0.07622081
-3.809963	行き着く	-0.1137762
-3.809963	行き着け	-0.1142485
-3.809963	行こ	-0.1139787
-3.809963	行っ	-0.09887605
-3.809963	行わ	-0.1139787
-3.508934	衣装	-0.1100478
-3.809963	裂けめ	-0.1132359
-3.508934	裏切り者	-0.3159144
-3.508934	裸体	-0.09353428
-3.809963	襲いかかり	-0.07629439
-3.809963	西	-0.1011752
-3.809963	覆い	-0.07629439
-3.508934	見	-0.1004798
-3.809963	見え	-0.1124241
-3.809963	見えすい	-0.09887605
-3.508934	見える	-0.2903955
-3.508934	見せ	-0.3059699
-3.809963	見せつけ	-0.09887605
-3.809963	見つけ	-0.09887605
-3.508934	見つめ	-0.3059699
-3.809963	見よ	-0.07629439
-3.508934	見る	-0.1092982
-3.809963	視線	-0.1002013
-3.207904	覚め	-0.2881528
-3.508934	覚悟	-0.1046357
-3.110994	言い	-0.07511544
-3.110994	言う	-0.1691405
-3.809963	言え	-0.1144507
-3.809963	言える	-0.08330165
-3.332842	言っ	-0.2101795
-3.809963	言わ	-0.1148549
-3.508934	訪ね	-0.3059699
-3.809963	訪れ	-0.1005494
-3.332842	許し	-0.3736237
-3.809963	許せ	-0.07629439
-3.809963	誇っ	-0.09887605
-3.809963	誇り	-0.1002013
-3.809963	誇る	-0.1151241
-3.809963	語っ	-0.1005494
-3.809963	語勢	-0.1002013
-3.508934	誠	-0.3016876
-3.809963	説き伏せ	-0.1005494
-3.508934	誰	-0.1036696
-3.809963	調え	-0.07629439
-3.809963	調べ	-0.1146529
-3.809963	警	-0.1151241
-3.809963	議論	-0.1002013
-3.508934	豪雨	-0.09353428
-3.508934	負け	-0.09803697
-3.508934	買い	-0.1011057
-3.809963	買い物	-0.1002013
-3.809963	買っ	-0.09887605
-3.809963	資格	-0.1150569
-3.809963	賢	-0.1151914
-3.207904	質問	-0.303026
-3.809963	赤い	-0.1151241
-3.809963	赤く	-0.1151241
-3.508934	赤らめ	-0.08359119
-3.809963	赤面	-0.1111357
-2.809963	走っ	-0.6200551
-3.809963	走ら	-0.1147876
-3.332842	走り	-0.2409043
-2.809963	走る	-0.3109499
-3.809963	走れ	-0.1144507
-3.809963	走れる	-0.1143833
-3.508934	起き	-0.05834176
-3.809963	起き上がっ	-0.09887605
-3.809963	起こっ	-0.1005494
-3.809963	越え	-0.1151914
-3.809963	足	-0.09712613
-3.508934	足もと	-0.09452324
-3.809963	路傍	-0.09459379
-3.508934	跳ね	-0.1149895
-3.809963	踏ん	-0.1088206
-3.809963	蹴飛ばし	-0.07629439
-3.809963	躍り	-0.1150569
-3.809963	躍り出	-0.1005494
-3.508934	身	-0.1001316
-3.031812	身代わり	-0.3535367
-3.809963	身体	-0.1149895
-3.508934	身支度	-0.08141498
-3.809963	車軸	-0.1002013
-3.809963	輝い	-0.09887605
-3.809963	辺り	-0.1002013
-3.809963	迎える	-0.1137762
-3.809963	近	-0.09459379
-3.809963	近々	-0.07629439
-3.809963	近づき	-0.07629439
-3.809963	近寄り	-0.07629439
-3.809963	追い出す	-0.1143833
-3.809963	逃がし	-0.1005494
-3.809963	逃げ	-0.09887605
-3.809963	途中	-0.1088206
-3.809963	速く	-0.1145855
-3.809963	遂行	-0.09459379
-3.809963	遅かっ	-0.1005494
-2.964865	遅れ	-0.6621169
-3.809963	遊ん	-0.1088206
-3.809963	運命	-0.1124241
-3.809963	過ぎ	-0.09887605
-3.508934	道	-0.09353428
-3.809963	道行く	-0.1130331
-3.809963	邪悪	-0.1151914
-3.508934	邪知	-0.1001316
-3.809963	都	-0.09459379
-3.508934	酒宴	-0.3016876
-3.809963	酔っ	-0.09887605
-3.809963	醜い	-0.1151241
-3.809963	里	-0.1151914
-3.809963	里程	-0.09459379
-3.809963	重ね	-0.1005494
-3.332842	野	-0.2122009
-3.809963	野原	-0.1088206
-3.809963	鎮め	-0.1151914
-3.809963	長い	-0.1151241
-3.809963	長く	-0.114181
-3.809963	開始	-0.1111357
-3.031812	間	-0.06599282
-3.508934	間に合う	-0.04121331
-3.809963	間に合っ	-0.1005494
-3.508934	間に合わ	-0.3199241
-3.809963	間近	-0.1124241
-3.809963	闘争	-0.1002013
-3.809963	降っ	-0.09887605
-3.332842	降り	-0.08330163
-3.809963	限り	-0.1011752
-3.809963	除か	-0.1147876
-3.809963	陽気	-0.1011752
-3.809963	隅	-0.1011752
-3.809963	隊	-0.09459379
-3.809963	隙	-0.1011752
-3.809963	隣村	-0.1011752
-3.809963	集まり	-0.07629439
-3.809963	集め	-0.07629439
-3.809963	離れ	-0.1005494
-3.207904	雨	-0.2916918
-3.809963	雨中	-0.07629439
-3.809963	雲	-0.1002013
-3.332842	静か	-0.3759228
-3.809963	面前	-0.1088206
-3.809963	韋	-0.1151914
-3.332842	音	-0.2349991
-3.809963	響き	-0.1002013
-3.031812	頃	-0.1591807
-3.809963	頑強	-0.1088206
-3.110994	頬	-0.9732947
-3.508934	頭	-0.08141498
-3.809963	頼む	-0.07629439
-3.508934	頼ん	-0.3159144
-3.809963	額	-0.09459379
-3.207904	顔	-0.1682741
-3.508934	願い	-0.3072951
-3.809963	願っ	-0.1005494
-3.332842	風	-0.09438208
-3.508934	飛ばし	-0.05834176
-3.809963	飛び越え	-0.07629439
-3.809963	飛び込み	-0.07629439
-3.809963	飛鳥	-0.09459379
-3.809963	飲ん	-0.1088206
-3.809963	飾り	-0.07629439
-3.809963	首	-0.1002013
-3.809963	馬	-0.09459379
-3.809963	駄	-0.1151241
-3.508934	駆け	-0.3221507
-3.809963	駆け抜け	-0.07629439
-3.809963	騒ぎ	-0.108684
-3.508934	驚い	-0.3076432
-3.809963	驚き	-0.07629439
-3.809963	高々	-0.1099797
-3.207904	高く	-0.1960916
-3.809963	鳴り響く	-0.1149895
-3.809963	黒い	-0.1150569
-3.809963	黒雲	-0.108684
-3.809963	黙れ	-0.08330165
-2.730782	！	-0.5456723
-3.508934	？	-0.1105241

\2-grams:
-0.1879905	<s> 「	0.02888089
-2.501698	<s> それ
-2.501698	<s> どっと
-2.501698	<s> ふと
-2.501698	<s> セリヌンティウス
-1.179326	<s> メロス	-0.231155
-2.501698	<s> 一
-2.501698	<s> 勇者
-2.501698	<s> 妹
-2.501698	<s> 山賊
-2.501698	<s> 濁流
-1.848907	<s> 目	-0.005200706
-1.848907	<s> 私	0.1209325
-2.501698	<s> 竹馬
-2.501698	<s> 群衆
-2.501698	<s> 聞い
-2.501698	<s> 花婿
-2.501698	<s> 花嫁
-2.501698	<s> 言う
-2.501698	<s> 道行く
-0.5817355	― ―
-1.234526	― 」
-1.234526	― 四肢
-1.535556	　 ああ
-1.535556	　 フィロストラトス
-1.535556	　 メロス
-1.535556	　 時
-1.535556	　 殺さ
-1.535556	　 濁流
-0.8827655	　 私	0.1209325
-2.091611	、 </s>
-3.375976	、 ―
-3.375976	、 「
-3.375976	、 あ
-3.375976	、 あおり
-3.375976	、 あて
-2.493608	、 あなた	0.03332014
-2.127066	、 あの	0.1075634
-3.375976	、 あれ
-3.375976	、 いい
-3.375976	、 いきり立っ
-3.375976	、 いちばん
-3.375976	、 いつ
-3.375976	、 いや
-3.375976	、 うそ
-3.375976	、 うとうと
-3.375976	、 うるさく
-3.375976	、 うんと
-3.375976	、 えい
-3.375976	、 お
-2.127066	、 おまえ	0.08240403
-3.375976	、 おり
-3.375976	、 お互い
-3.375976	、 かき分け
-3.375976	、 かじりつい
-3.375976	、 かすれ
-3.375976	、 かっと
-3.375976	、 かの
-3.375976	、 が
-3.375976	、 きい
-2.493608	、 きっと
-2.723185	、 きみ	-0.09395274
-3.375976	、 くだらない
-2.723185	、 けれども
-3.375976	、 こう
-2.127066	、 ここ	0.2349999
-3.375976	、 こちら
-3.375976	、 こっ
-2.493608	、 この
-3.375976	、 この世
-2.285112	、 これ
-2.493608	、 これから
-3.375976	、 ご
-3.375976	、 さすが
-3.375976	、 さっさと
-3.375976	、 さっと
-3.375976	、 さんざん
-3.375976	、 ざ
-3.375976	、 しばらく
-3.375976	、 しわがれ
-3.375976	、 じだんだ
-3.375976	、 すかし
-3.375976	、 すがりつく
-2.493608	、 すぐ	-0.1820691
-3.375976	、 するりと
-2.493608	、 そう	-0.3099009
-3.375976	、 そっと
-2.127066	、 その	-0.002509746
-1.74351	、 それ	-0.04759249
-2.723185	、 それから
-3.375976	、 それでも
-2.723185	、 そろそろ
-3.375976	、 たちまち
-2.723185	、 たった
-3.375976	、 たぶん
-3.375976	、 たまらない
-3.375976	、 たまらなく
-3.375976	、 だめ
-3.375976	、 だんだん
-3.375976	、 ちゃんと
-2.723185	、 ちょっと
-3.375976	、 ちら
-2.285112	、 ついに
-3.375976	、 つらかっ
-3.375976	、 つり上げ
-3.375976	、 てれ
-3.375976	、 でき
-3.375976	、 できる
-1.597382	、 と	-0.009313741
-2.493608	、 どう	-0.3099009
-3.375976	、 どうか
-3.375976	、 どうどう
-3.375976	、 どうにか
-3.375976	、 どよめい
-2.723185	、 どんな
-3.375976	、 など
-3.375976	、 なに
-2.723185	、 なにか
-3.375976	、 なにもかも
-3.375976	、 なら
-2.723185	、 なん	0.2134656
-2.723185	、 なんだか	0.1645315
-3.375976	、 のそのそ
-3.375976	、 はたと
-2.723185	、 はりつけ	-0.05567776
-3.375976	、 はるばる
-3.375976	、 ばかばかしい
-3.375976	、 ひしと
-3.375976	、 ひと口
-3.375976	、 ひどく
-3.375976	、 ふい
-3.375976	、 ふるさと
-3.375976	、 ぶどう
-3.375976	、 ぶる
-2.723185	、 ほっと
-3.375976	、 ほとんど
-3.375976	、 ほどか
-3.375976	、 ぽつりぽつり
-3.375976	、 まごつい
-3.375976	、 まさか
-3.375976	、 まさしく
-3.375976	、 まさに
-3.375976	、 まじまじ
-3.375976	、 ますます
-2.723185	、 また	-0.02589049
-2.285112	、 まだ	0.08083967
-3.375976	、 まだまだ
-3.375976	、 まどろん
-3.375976	、 まもなく
-3.375976	、 みごと
-2.723185	、 みじん	0.02880062
-3.375976	、 むんむん
-3.375976	、 めいめい
-2.285112	、 もう
-3.375976	、 もっと
-3.375976	、 もともと
-3.375976	、 もの
-2.723185	、 もはや
-2.493608	、 やがて
-3.375976	、 やけに
-3.375976	、 やっと
-3.375976	、 やはり
-2.723185	、 やめ	0.2321853
-3.375976	、 ゆらゆら
-3.375976	、 よき
-3.375976	、 よくよく
-3.375976	、 よろしい
-2.723185	、 よろよろ
-3.375976	、 わかっ
-3.375976	、 わが身
-3.375976	、 わけ
-2.053604	、 わし	-0.08169422
-3.375976	、 シ
-2.723185	、 セリヌンティウス
-3.375976	、 ゼウス
-1.488237	、 メロス	0.05242316
-3.375976	、 一
-3.375976	、 一生
-3.375976	、 一睡
-2.053604	、 三	0.1568212
-3.375976	、 不吉
-3.375976	、 不名誉
-3.375976	、 乱心
-2.493608	、 二	-0.03763577
-3.375976	、 亭主
-2.285112	、 人	0.1846016
-3.375976	、 人々
-3.375976	、 人一倍
-2.723185	、 人質
-1.789267	、 今	0.2791995
-3.375976	、 今宵
-3.375976	、 今度
-3.375976	、 今日
-3.375976	、 体
-2.493608	、 何
-3.375976	、 信じ
-3.375976	、 信ずる
-3.375976	、 信実
-3.375976	、 信頼
-2.723185	、 僅か
-3.375976	、 先刻
-3.375976	、 全て
-3.375976	、 全身
-3.375976	、 六
-3.375976	、 内気
-3.375976	、 処刑
-3.375976	、 刑
-3.375976	、 刑場
-2.723185	、 初め
-3.375976	、 初めて
-3.375976	、 刻
-3.375976	、 刻み込ま
-3.375976	、 前方
-3.375976	、 勇者
-3.375976	、 勝手
-2.723185	、 十
-3.375976	、 南無
-3.375976	、 単純
-2.723185	、 友
-3.375976	、 口
-3.375976	、 名誉
-3.375976	、 呼吸
-3.375976	、 命
-3.375976	、 問題
-3.375976	、 喉
-3.375976	、 声
-3.375976	、 夕日
-3.375976	、 外
-2.493608	、 夜
-3.375976	、 夢
-3.375976	、 夢見心地
-3.375976	、 好き
-2.493608	、 妹	-0.05892615
-3.375976	、 宝
-3.375976	、 宴席
-3.375976	、 家
-3.375976	、 寝
-3.375976	、 対岸
-3.375976	、 小川
-2.723185	、 少し
-3.375976	、 少しく
-3.375976	、 山賊
-3.375976	、 岩
-3.375976	、 巡邏
-3.375976	、 巻き
-3.375976	、 希代
-3.375976	、 帰っ
-3.375976	、 平和
-3.375976	、 平気
-3.375976	、 幾分
-3.375976	、 強い
-2.723185	、 待っ	0.577648
-3.375976	、 待つ
-3.375976	、 徐々に
-3.375976	、 心
-3.375976	、 必ず
-3.375976	、 必死
-3.375976	、 息
-3.375976	、 悔し泣き
-3.375976	、 悠々
-3.375976	、 悪い
-3.375976	、 悪徳
-3.375976	、 悪心
-3.375976	、 愛
-3.375976	、 憫笑
-3.375976	、 手
-3.375976	、 押し寄せ
-3.375976	、 放し
-2.493608	、 日	0.04143907
-3.375976	、 早かっ
-3.375976	、 明くる日
-3.375976	、 明日
-3.375976	、 暗い
-3.375976	、 最も
-3.375976	、 木々
-3.375976	、 本当に
-2.285112	、 村	-0.23548
-3.375976	、 村人
-3.375976	、 森
-3.375976	、 欺か
-3.375976	、 歓喜
-3.375976	、 歓声
-3.375976	、 歔欷
-3.375976	、 止まっ
-3.375976	、 正当
-3.375976	、 正直
-3.375976	、 正義
-3.375976	、 死ぬ
-3.375976	、 死ん
-3.375976	、 残る
-3.375976	、 残虐
-2.723185	、 殺さ
-3.375976	、 母
-3.375976	、 民
-3.375976	、 気
-2.723185	、 水
-2.723185	、 永遠	0.1645315
-2.723185	、 決して
-3.375976	、 泣い
-3.375976	、 海
-3.375976	、 消えよ
-3.375976	、 深夜
-3.375976	、 渡し守
-3.375976	、 満天
-3.375976	、 満面
-3.375976	、 潺
-2.493608	、 濁流	0.05400992
-3.375976	、 無駄
-3.375976	、 犬
-3.375976	、 独りよがり
-3.375976	、 独り合点
-3.375976	、 狭い
-3.375976	、 猛
-3.375976	、 獅子奮迅
-2.285112	、 王	0.03479922
-2.723185	、 王城	0.2134656
-3.375976	、 王様
-3.375976	、 男泣き
-2.285112	、 町	-0.0127993
-3.375976	、 疲れ
-3.375976	、 疲労
-3.375976	、 登り
-3.375976	、 百
-3.375976	、 皆
-3.375976	、 皇后
-3.375976	、 目
-3.375976	、 眉間
-3.375976	、 真っ裸
-3.375976	、 真昼
-3.375976	、 真紅
-3.375976	、 矢
-3.375976	、 知っ
-3.375976	、 石工
-3.375976	、 祝宴
-2.493608	、 神	0.09221744
-1.513061	、 私	0.4721183
-3.375976	、 空っぽ
-3.375976	、 突然
-3.375976	、 立ちすくん
-3.375976	、 立ち止まり
-3.375976	、 精
-3.375976	、 精神
-3.375976	、 約束
-3.375976	、 結婚式
-3.375976	、 緋
-2.723185	、 縄
-3.375976	、 繋
-2.723185	、 羊
-2.723185	、 群衆
-3.375976	、 考え
-3.375976	、 背負っ
-3.375976	、 膨れ
-3.375976	、 臣下
-2.723185	、 自分	0.1252595
-2.723185	、 花婿
-3.375976	、 花嫁
-3.375976	、 荒れ
-3.375976	、 葉
-3.375976	、 見る
-3.375976	、 訪ね
-3.375976	、 許し
-3.375976	、 語勢
-3.375976	、 説き伏せ
-3.375976	、 誰
-3.375976	、 賢
-3.375976	、 赤く
-3.375976	、 走る
-3.375976	、 跳ね
-3.375976	、 身代わり
-3.375976	、 辺り
-3.375976	、 近々
-3.375976	、 途中
-2.723185	、 遅れ	0.2869823
-3.375976	、 酒宴
-3.375976	、 醜い
-2.723185	、 野	0.02880062
-3.375976	、 鎮め
-2.723185	、 間に合わ	0.1645315
-3.375976	、 降っ
-3.375976	、 陽気
-3.375976	、 隣村
-2.723185	、 雨	0.09747083
-3.375976	、 雨中
-3.375976	、 静か
-3.375976	、 顔
-3.375976	、 風
-3.375976	、 飛鳥
-3.375976	、 首
-3.375976	、 騒ぎ
-3.375976	、 黒雲
-1.213707	。 </s>
-3.293332	。 ―
-1.546922	。 「	-0.0002413944
-0.9205028	。 」	-0.07319003
-1.706623	。 ああ	0.20412
-3.293332	。 あちこち
-3.293332	。 あっぱれ
-3.293332	。 あなた
-3.293332	。 あの
-2.640541	。 ありがたい
-3.293332	。 ありがとう
-2.640541	。 あれ
-3.293332	。 いや
-3.293332	。 うぬぼれ
-3.293332	。 えい
-3.293332	。 お
-1.660865	。 おまえ	0.04757255
-1.970959	。 きみ	-0.01001288
-3.293332	。 きれい
-2.410964	。 けれども
-2.008967	。 この
-3.293332	。 これ
-3.293332	。 ご
-3.293332	。 さあ
-3.293332	。 さて
-3.293332	。 さらば
-3.293332	。 しばらく
-3.293332	。 すぐ
-3.293332	。 すでに
-3.293332	。 ずんずん
-3.293332	。 ぜ
-2.640541	。 そう
-2.202468	。 そうして	-0.07576572
-3.293332	。 そっと
-1.757776	。 その
-2.640541	。 それ
-2.008967	。 それから	-0.02699724
-3.293332	。 それでは
-2.640541	。 そんなに
-2.640541	。 ただ	0.09747083
-3.293332	。 たちまち
-3.293332	。 たった
-3.293332	。 だらし
-2.640541	。 ちょっと
-3.293332	。 つい
-2.202468	。 どう	-0.001352047
-3.293332	。 どうせ
-3.293332	。 なかなか
-3.293332	。 なに
-3.293332	。 のんき
-3.293332	。 はるか
-3.293332	。 ひっそり
-3.293332	。 ひょっとしたら
-3.293332	。 ぶらぶら
-3.293332	。 ほう
-3.293332	。 ほんの
-3.293332	。 まず
-3.293332	。 また
-3.293332	。 まだ
-3.293332	。 まっすぐ
-3.293332	。 まま
-2.202468	。 もう	0.07533767
-3.293332	。 もの
-3.293332	。 や
-3.293332	。 やはり
-3.293332	。 ゆっくり
-3.293332	。 よき
-3.293332	。 よくも
-3.293332	。 よろめい
-3.293332	。 よろよろ
-3.293332	。 わが身
-3.293332	。 わし
-2.044421	。 セリヌンティウス	0.1168626
-1.155715	。 メロス	0.002750553
-3.293332	。 一
-3.293332	。 一刻
-3.293332	。 一団
-3.293332	。 一気に
-2.640541	。 三	0.04551259
-3.293332	。 世の中
-3.293332	。 中途
-3.293332	。 久しく
-3.293332	。 五臓
-3.293332	。 亭主
-2.008967	。 人	0.2210872
-3.293332	。 人間
-1.970959	。 今	-0.0127377
-3.293332	。 今宵
-2.410964	。 今日	0.1566815
-3.293332	。 他
-2.410964	。 信じ	0.1289617
-3.293332	。 信実
-3.293332	。 先刻
-3.293332	。 全部
-3.293332	。 再び
-3.293332	。 刑場
-3.293332	。 初夏
-3.293332	。 力いっぱい
-3.293332	。 動け
-3.293332	。 十
-2.640541	。 友	-0.08228953
-3.293332	。 同じ
-3.293332	。 呼吸
-3.293332	。 命
-3.293332	。 命乞い
-3.293332	。 国王
-3.293332	。 地上
-3.293332	。 塔
-3.293332	。 夜明け
-3.293332	。 大切
-3.293332	。 天
-3.293332	。 太陽
-3.293332	。 女房
-2.410964	。 妹
-2.640541	。 婿	-0.02589049
-2.640541	。 少し
-3.293332	。 山賊
-3.293332	。 帰っ
-3.293332	。 幾度
-2.640541	。 彼
-3.293332	。 待っ
-3.293332	。 必ず
-3.293332	。 忘れ
-3.293332	。 急げ
-3.293332	。 悪い
-2.640541	。 愛	0.09747083
-3.293332	。 愛する
-3.293332	。 押し流さ
-3.293332	。 持ち物
-3.293332	。 放せ
-3.293332	。 放っ
-3.293332	。 斜陽
-3.293332	。 新郎
-2.640541	。 日	-0.01777156
-3.293332	。 日没
-3.293332	。 早い
-3.293332	。 早く
-2.640541	。 明日
-3.293332	。 昨日
-2.640541	。 暴君	-0.005200706
-3.293332	。 最後
-2.640541	。 村
-3.293332	。 正直
-3.293332	。 正義
-3.293332	。 歩い
-3.293332	。 歩ける
-3.293332	。 死ん
-3.293332	。 殴っ
-3.293332	。 殴れ
-3.293332	。 殺さ
-3.293332	。 水
-3.293332	。 波
-3.293332	。 泳ぎ
-3.293332	。 流れ
-3.293332	。 満身
-3.293332	。 濁流
-3.293332	。 無駄
-2.202468	。 王	-0.2016239
-3.293332	。 王様
-3.293332	。 生かし
-3.293332	。 生まれ
-3.293332	。 生意気
-3.293332	。 目
-3.293332	。 真
-2.640541	。 祝宴
-3.293332	。 神
-1.155715	。 私	0.2439159
-3.293332	。 立ち上がる
-3.293332	。 笑っ
-3.293332	。 笛
-2.640541	。 約束
-2.410964	。 結婚式	-0.01524762
-3.293332	。 羊
-3.293332	。 群衆
-3.293332	。 義務
-2.640541	。 老爺	-0.02589049
-3.293332	。 肉体
-3.293332	。 自分
-2.640541	。 若い
-3.293332	。 若い衆
-3.293332	。 行こ
-3.293332	。 見える
-3.293332	。 見よ
-3.293332	。 言え
-3.293332	。 許せ
-3.293332	。 調べ
-3.293332	。 買い物
-3.293332	。 走ら
-2.202468	。 走る	0.1599291
-3.293332	。 走れ
-3.293332	。 路傍
-3.293332	。 身代わり
-3.293332	。 身体
-3.293332	。 身支度
-3.293332	。 逃がし
-2.410964	。 遅れ	-0.0281818
-3.293332	。 道
-3.293332	。 野原
-3.293332	。 間に合う
-3.293332	。 間に合っ
-3.293332	。 雨
-3.293332	。 頼む
-3.293332	。 風
-1.331436	々 、
-1.331436	々 と
-1.331436	々 の
-1.331436	々 へ
-1.331436	々 も
-1.333994	「 ああ	0.9124091
-2.424858	「 あきれ
-2.424858	「 ありがとう
-2.424858	「 いいえ
-1.772067	「 いや	0.3924738
-2.424858	「 うれしい
-1.772067	「 おまえ
-2.424858	「 おめでとう
-2.424858	「 この
-2.424858	「 さては
-2.424858	「 しかた
-2.424858	「 そう
-2.424858	「 その
-2.424858	「 それ
-2.424858	「 たくさん
-2.424858	「 ただ
-2.424858	「 ちょうど
-2.424858	「 とんでもない
-2.424858	「 どっこい
-2.424858	「 なぜ
-2.424858	「 なに
-1.772067	「 なん
-2.424858	「 は
-2.424858	「 はい
-2.424858	「 ばか
-2.424858	「 もう
-2.424858	「 やめ
-2.424858	「 わし
-2.424858	「 セリヌンティウス
-2.424858	「 フィロストラトス
-1.772067	「 メロス	-0.1475409
-2.424858	「 万
-2.424858	「 人
-2.424858	「 今頃
-2.424858	「 何
-2.424858	「 口
-1.772067	「 待て	0.1645315
-2.424858	「 悪心
-2.424858	「 支度
-2.424858	「 気の毒
-2.424858	「 王様
-1.772067	「 町
-2.424858	「 疑う
-1.333994	「 私
-2.424858	「 罪
-2.424858	「 言う
-2.424858	「 誰
-2.424858	「 願い
-2.424858	「 驚い
-2.424858	「 黙れ
-0.1796078	」 </s>
-2.424858	」 ああ
-2.424858	」 うめく
-2.424858	」 その
-1.175948	」 と	-0.03368076
-1.140493	」 メロス	-0.1307845
-2.424858	」 二
-2.424858	」 今度
-1.772067	」 暴君
-1.772067	」 王	-0.02838731
-0.6324661	あ 、
-0.02802872	ああ 、	-0.03314121
-0.6324661	あおり 立て
-0.6324661	あがり 、
-0.6324661	あきれ た
-0.6324661	あげ て
-0.6324661	あげよ う
-0.6324661	あげる 激流
-0.6324661	あたりまえ だ
-0.6324661	あちこち と
-0.03778856	あっ た	0.350623
-0.6324661	あっぱれ 。
-0.6324661	あて に
-1.234526	あなた の
-0.5817355	あなた は
-1.234526	あなた を
-0.5416021	あの かた	0.06014989
-1.632466	あの よい
-1.632466	あの 友人
-1.632466	あの 悪魔
-1.632466	あの 王
-1.632466	あの 男
-1.632466	あの 約束
-0.9334961	ありがたい 。
-0.9334961	ありがたい ！
-0.2807055	ありがとう 、
-0.1312789	ある 。	-0.01543802
-1.994194	ある から
-0.9033299	ある の	-0.2211299
-1.994194	ある 律儀
-1.234526	あれ が
-1.234526	あれ は
-1.234526	あれ を
-1.234526	あれ ！
-0.6324661	あん な
-1.91122	い ぜ
-0.2787536	い た	-0.01354893
-1.91122	い たい
-1.91122	い たかっ
-1.258429	い ない
-1.91122	い なく
-1.91122	い まし
-1.91122	い ます
-1.91122	い 荒い
-0.4249487	いい 。
-1.673859	いい こと
-1.673859	いい という
-1.673859	いい の
-1.673859	いい 声
-0.6324661	いいえ 、
-0.2272196	いう の	-0.09206665
-0.6324661	いえ ども
-0.9334961	いき たい
-0.9334961	いき ます
-0.6324661	いきり立っ て
-1.109587	いく 。
-1.109587	いく だろ
-1.109587	いく の
-0.9334961	いけ 。
-0.9334961	いけ ない
-0.6324661	いこ う
-0.9334961	いちばん 嫌い
-0.9334961	いちばん 誇る
-0.9334961	いっ た
-0.9334961	いっ て
-0.6324661	いっそ 、
-0.6324661	いっぱい に
-0.6324661	いつ でも
-0.6324661	いも 虫
-0.1436621	いや 、	-0.06952228
-0.6324661	いよ う
-0.9334961	いよいよ 、
-0.9334961	いよいよ 乱れ
-2.200668	いる 、
-0.4890205	いる 。	-0.05356708
-2.200668	いる うち
-2.200668	いる から
-2.200668	いる が
-2.200668	いる この
-2.200668	いる ぞ
-1.547877	いる だろ	0.577648
-2.200668	いる とき
-2.200668	いる ね
-0.9163029	いる の	-0.1450328
-2.200668	いる のに
-2.200668	いる よ
-1.547877	いる らしい
-1.547877	いる 人	-0.1438064
-1.547877	いる 様子	0.09747083
-2.200668	いる 者
-2.200668	いる ！
-0.6324661	いろ 。
-1.258429	う 、	-0.1467051
-0.1995724	う 。	-0.0139869
-1.91122	う か
-1.91122	う ぞ
-1.028852	う と
-0.6324661	うえ 、
-0.6324661	うずくまり 、
-1.109587	うそ つき
-0.4567968	うそ を
-0.6324661	うた 。
-0.1436621	うち に	-0.03207131
-0.6324661	うと う
-0.6324661	うとうと 、
-0.6324661	うなずい た
-0.2807055	うなずき 、
-0.6324661	うなり を
-0.6324661	うぬぼれ て
-0.6324661	うめく よう
-0.6324661	うるさく 兄
-0.6324661	うれしい か
-0.6324661	うれし泣き に
-0.9334961	うんと 見せつけ
-0.9334961	うんと 走る
-0.9334961	えい 、
-0.9334961	えい と
-1.477564	お 世継ぎ
-1.477564	お 助け
-1.477564	お 友達
-1.477564	お 命
-1.477564	お 恨み
-1.477564	お 疑い
-1.477564	お 目
-0.6324661	おい て
-0.6324661	おいおい 声
-0.6324661	おけ ぬ
-0.6324661	おっしゃる 。
-1.933496	おまえ が
-1.933496	おまえ たち
-1.933496	おまえ だって
-1.051128	おまえ に	-0.05191495
-0.6111239	おまえ の	-0.04499275
-1.280706	おまえ は
-1.280706	おまえ も
-1.051128	おまえ ら	0.03332014
-1.933496	おまえ を
-0.6324661	おめでとう 。
-0.6324661	おもしろい 。
-0.9334961	おら れ
-0.9334961	おら れる
-1.234526	おり から
-1.234526	おり まし
-1.234526	おり ます
-1.234526	おり ませ
-0.6324661	おわび 、
-0.9334961	お互い さま
-0.9334961	お互い 胸
-0.6324661	お子様 を
-0.6718218	か 、	-0.04265668
-0.2825466	か 。	-0.02174094
-1.994194	か あっ
-1.994194	か な
-1.994194	か は
-1.341403	か ？
-0.6324661	かかっ て
-0.6324661	かがめ た
-0.3521583	かき分け 、
-1.234526	かき分け かき分け
-0.6786456	かけ たい
-0.6786456	かけ て
-1.331436	かけ られ
-0.6324661	かじりつい た
-0.6324661	かすか に
-0.6324661	かすれ た
-1.234526	かた が
-1.234526	かた は
-0.5817355	かた を
-0.6324661	かたまり さ
-0.6324661	かっと 照っ
-0.6324661	かなっ た
-0.6324661	かなわ ぬ
-0.6324661	かの 邪知
-0.6324661	かも しれ
-0.5740313	から 、
-2.109587	から うれし泣き
-2.109587	から な
-2.109587	から は
-1.456797	から も	-0.0231225
-2.109587	から 二
-2.109587	から 何
-2.109587	から 信じ
-2.109587	から 優しく
-2.109587	から 午後
-2.109587	から 名誉
-2.109587	から 救う
-2.109587	から 正直
-2.109587	から 滾
-2.109587	から 立ち去り
-2.109587	から 花婿
-2.109587	から 血
-2.109587	から 行っ
-2.109587	から 覚め
-2.109587	から 走る
-2.109587	から 追い出す
-2.109587	から 都
-0.6324661	からかっ て
-0.6324661	かわいい 娘
-0.6645525	が 、	-0.03299501
-2.619238	が 。
-2.619238	が あっ
-1.083682	が ある	0.5557184
-1.966447	が い
-1.334873	が いい	-0.3444669
-2.619238	が か
-2.619238	が かすか
-2.619238	が くり
-2.619238	が し
-2.619238	が すん
-2.619238	が つぶれ
-1.528374	が でき	-0.002140544
-2.619238	が できる
-2.619238	が ない
-2.619238	が まとも
-2.619238	が もし
-1.528374	が よい	-0.1246871
-2.619238	が よかろ
-1.966447	が わから	0.2321853
-2.619238	が 人間
-1.966447	が 出	0.07168587
-2.619238	が 嘲笑
-2.619238	が 噴き
-2.619238	が 大きく
-1.966447	が 大事
-1.966447	が 帰っ	0.8421789
-2.619238	が 平和
-2.619238	が 楽しみ
-2.619238	が 欲しい
-2.619238	が 歌
-2.619238	が 正義
-2.619238	が 死刑
-2.619238	が 沈む
-2.619238	が 沈ん
-2.619238	が 流れ
-2.619238	が 湧き出
-2.619238	が 狂っ
-2.619238	が 生きる
-2.619238	が 生まれ
-2.619238	が 疲れ
-2.619238	が 私
-2.619238	が 空
-1.966447	が 聞こえ	0.2321853
-2.619238	が 見えすい
-2.619238	が 見える
-1.73687	が 覚め	0.1566815
-2.619238	が 起こっ
-2.619238	が 躍り出
-2.619238	が 逃げ
-2.619238	が 降り
-2.619238	が 高々
-0.6324661	がら ゼウス
-0.06694679	き た	0.08314223
-1.778594	き て
-1.778594	き ます
-0.6324661	きい た
-0.6324661	きかせ て
-0.2807055	きっ て
-1.109587	きっと よい
-1.109587	きっと 殺す
-1.109587	きっと 笑わ
-1.093619	きみ が
-1.74641	きみ だけ
-0.8640416	きみ と	-0.09273625
-0.8640416	きみ は	0.1926597
-0.6555455	きみ を	-0.0697071
-0.6324661	きらきら 光っ
-0.6324661	きり 、
-0.6324661	きる より
-0.6324661	きれい な
-0.6324661	くぐり抜け 、
-0.05115252	ください 。
-0.6324661	くだらない 。
-0.9334961	くらい の
-0.9334961	くらい 音
-0.6324661	くり と
-1.234526	くる が
-1.234526	くる と
-1.234526	くる の
-1.234526	くる 兄
-1.109587	くるう 。
-1.109587	くるう 波
-1.109587	くるう 流れ
-1.028852	くれ 、	-0.08749443
-0.6268548	くれ 。	-0.05177573
-0.8203557	くれ た	0.3914261
-1.258429	くれ て
-1.91122	くれ ない
-1.91122	くれ なかっ
-1.91122	くれ なけれ
-1.91122	くれ まい
-1.91122	くれ ！
-0.9334961	くれる と
-0.9334961	くれる に
-0.6324661	ぐずぐず とどまっ
-0.6786456	けれども 、
-1.331436	けれども 威厳
-1.331436	けれども 私
-1.331436	けれども 邪悪
-0.9334961	こ ない
-0.9334961	こ なかっ
-1.331436	こい 、
-0.4490683	こい 。
-1.331436	こい ！
-0.9334961	こう だ
-0.9334961	こう 言っ
-0.6324661	こうむっ て
-0.9796755	ここ で
-0.5416021	ここ に
-1.632466	ここ へ
-0.7500983	ここ まで
-0.9334961	こそ 発揮
-0.9334961	こそ 知らせ
-0.6324661	こちら に
-0.6324661	こっ ぱ
-0.6905239	こと が	-0.2025545
-1.322098	こと だ	0.4581747
-1.322098	こと で
-1.974889	こと と
-1.974889	こと なら
-1.974889	こと に
-0.6525166	こと は	-0.04175958
-1.974889	こと も
-1.092521	こと を
-1.836586	この うえ
-1.836586	この うそ
-1.836586	この かわいい
-1.836586	この まま
-1.836586	この よい
-1.183795	この シ	0.2321853
-1.836586	この 三
-1.836586	この 大事
-1.836586	この 妹
-1.836586	この 家
-1.836586	この 心臓
-1.183795	この 町	-0.005803342
-1.836586	この 短刀
-1.836586	この 頃
-0.6324661	この世 で
-0.6324661	こめ て
-0.6324661	こらえ 、
-1.331436	これ から
-1.331436	これ が
-1.331436	これ だ
-1.331436	これ で
-1.331436	これ ほど
-1.109587	これから すぐ
-1.109587	これから 王
-1.109587	これから 訪ね
-0.6324661	これしき と
-0.6324661	こんなに 走っ
-1.234526	ご とく
-1.234526	ご 命令
-1.234526	ご 自分
-1.234526	ご 自身
-1.410617	ござい まし
-0.3197533	ござい ます	0.8222324
-1.410617	ござい ませ
-0.6324661	ごちそう や
-1.109587	ごとく 刑場
-1.109587	ごとく 走り
-1.109587	ごとく 身
-0.6324661	ごろりと 寝転がっ
-0.6531883	さ 。
-1.535556	さ せ
-0.6531883	さ れ	0.01836827
-1.535556	さ を
-0.6324661	さあ 、
-1.109587	さえ ない
-1.109587	さえ 忘れ
-1.109587	さえ 疑っ
-0.6324661	さける 思い
-0.6324661	ささげ た
-0.9334961	ささやき ながら
-0.9334961	ささやき は
-0.6324661	さすが に
-0.6324661	させ 、
-0.6324661	さっさと 走っ
-0.9334961	さっと すれ違っ
-0.9334961	さっと 顔
-0.6324661	さて 、
-0.6324661	さては 、
-0.9334961	さま さ
-0.9334961	さま を
-0.6324661	さらに 押し
-0.6324661	さらば 、
-0.6324661	さらわ れ
-0.6324661	さん は
-0.6324661	さんざん あの
-0.6324661	ざ ん
-1.326932	し 、
-0.3873898	し た	-0.05922673
-0.3539661	し て	0.0240848
-1.535428	し ない
-2.417796	し ながら
-2.417796	し なく
-0.6324661	しかた の
-0.9334961	しばらく は
-0.9334961	しばらく 歩い
-0.6324661	しまえ 。
-0.2405721	しまっ た	0.1321491
-1.331436	しまっ て
-0.6324661	しまわ ぬ
-0.6324661	しよ う
-0.6324661	しれ ない
-0.6324661	しわ は
-0.2807055	しわがれ た	-0.1542149
-0.6324661	じだんだ 踏ん
-0.9334961	じゃ 。
-0.9334961	じゃ ない
-0.6324661	すかし て
-0.6324661	すがりつく こと
-0.6324661	すくっ て
-1.535556	すぐ 、
-0.2511912	すぐ に	-0.2378703
-1.535556	すぐ 町
-1.535556	すぐ 足もと
-0.6324661	すごし た
-1.331436	すでに はりつけ
-1.331436	すでに 日
-1.331436	すでに 真昼
-1.331436	すでに 西
-1.331436	すでに 高く
-1.331436	する が
-1.331436	する だろ
-1.331436	する つもり
-1.331436	する の
-1.331436	する 資格
-0.6324661	するりと 抜け
-0.2807055	すれ ば	-0.01777156
-0.6324661	すれ違っ た
-0.6324661	すん だ
-0.7578268	ず 、
-1.410617	ず に
-1.410617	ず 一斉
-1.410617	ず 十里
-1.410617	ず 波
-0.9334961	ずつ 差し出す
-0.9334961	ずつ 沈ん
-0.6324661	ずんずん 沈む
-1.535556	せ 、
-1.535556	せ ず
-0.2511912	せ て
-1.535556	せ ぬ
-0.6324661	せい ばかり
-0.6324661	せせら笑う ご
-0.2807055	ぜ い
-0.6324661	ぜひとも 、
-0.3867001	そう し	-0.03786002
-1.477564	そう です
-1.477564	そう なっ
-1.477564	そう に
-0.3521583	そうして 、
-1.234526	そうして 身代わり
-0.9334961	そっと ほくそ笑ん
-0.9334961	そっと 頭
-1.301895	その 、
-1.954685	その マント
-1.954685	その 一事
-1.954685	その 人
-1.954685	その 友
-1.954685	その 品々
-1.954685	その 夜
-1.954685	その 宴席
-1.954685	その 棍棒
-1.954685	その 泉
-1.954685	その 王
-1.072318	その 男
-1.954685	その 若い
-1.954685	その 誇り
-1.072318	その 身代わり	0.05400992
-1.954685	その 頃
-0.9261895	それ から
-1.808557	それ が
-1.808557	それ だ
-1.808557	それ だけ
-1.155767	それ で
-1.155767	それ は
-1.808557	それ も
-1.808557	それ ゆえ
-0.9261895	それ を
-0.155192	それから 、	-0.04511645
-1.477564	それから すぐ
-0.6324661	それでは 、
-0.6324661	それでも 、
-0.9334961	そろそろ 全
-0.9334961	そろそろ 暑く
-0.6324661	そん な
-0.9334961	そんなに 急ぐ
-0.9334961	そんなに 私
-1.535556	ぞ 、
-0.286646	ぞ 。	-0.1023307
-0.1832193	た 。	-0.02626855
-1.68054	た か	0.2307289
-2.964905	た から
-1.642532	た が	-0.5436125
-2.312114	た こと
-2.964905	た この
-2.964905	た ぞ
-2.964905	た って
-2.964905	た で
-1.874041	た とき	-0.001352047
-2.964905	た なら
-0.9522272	た の	-0.5530459
-2.964905	た はず
-2.312114	た ばかり
-2.964905	た ふり
-2.964905	た まえ
-2.964905	た まま
-2.964905	た もう
-2.312114	た よう
-2.964905	た セリヌンティウス
-2.964905	た メロス
-2.082537	た 声	0.06841339
-2.964905	た 小鳥
-2.964905	た 打ち
-2.964905	た 村人
-2.964905	た 根性
-2.964905	た 様子
-2.964905	た 災難
-2.964905	た 王
-2.964905	た 瞬間
-2.964905	た 私
-2.964905	た 若い衆
-2.964905	た 運命
-2.312114	た 頃
-1.586709	たい 、
-0.7043408	たい 。
-1.586709	たい つもり
-1.586709	たい と
-0.9339181	たい の
-1.586709	たい もの
-0.6324661	たかっ た
-0.6324661	たく なく
-0.6324661	たくさん の
-0.6324661	たたい て
-0.6324661	たたえ 、
-0.3521583	ただ 、
-1.234526	ただ その
-1.632466	たち だ
-1.632466	たち と
-0.9796755	たち に
-0.3481012	たち は	0.07565627
-1.632466	たち を
-0.9334961	たちまち 、
-0.9334961	たちまち 彼
-0.4567968	たった 一
-1.109587	たった 一つ
-0.6324661	たて て
-0.6324661	たぶん 偉い
-0.6324661	たまえ 、
-0.6324661	たまらない 。
-0.6324661	たまらなく 悔しい
-1.586709	ため か
-1.586709	ため だ
-0.2643364	ため に	-0.1870812
-1.586709	ため の
-0.6324661	ためらい 、
-0.9334961	ため息 が
-0.9334961	ため息 を
-0.05115252	たら 、	-0.05488836
-2.61019	だ 、
-0.1203911	だ 。	0.03363134
-1.36128	だ から	-0.1774173
-1.325825	だ が	-0.1356766
-2.61019	だ ぞ
-2.61019	だ つもり
-1.957399	だ と
-2.61019	だ な
-2.61019	だ よ
-1.957399	だ よう	0.3540623
-2.61019	だ 頃
-2.61019	だ ！
-0.2807055	だいじょうぶ 、
-1.477564	だけ 、
-0.8247736	だけ だ	0.4581747
-1.477564	だけ で
-1.477564	だけ は
-1.477564	だけ 答え
-1.477564	だけ 許し
-0.5817355	だし 、
-0.5817355	だし た	0.3053857
-0.9334961	だっ た
-0.9334961	だっ たら
-0.1436621	だって 、
-0.2272196	だの 、
-0.6324661	だまさ れ
-0.6324661	だめ で
-0.6324661	だらし が
-0.08824516	だろ う	-0.2159151
-0.6324661	だんだん 不安
-0.6324661	ちがい ない
-0.6324661	ちゃんと 死
-0.6324661	ちょうど 今
-1.331436	ちょっと でも
-1.331436	ちょっと ひと眠り
-1.331436	ちょっと 御免
-0.6786456	ちょっと 遅れ	0.2869823
-0.6324661	ちら と
-0.6324661	って 聞か
-0.9334961	つい た
-0.9334961	つい て
-1.234526	ついに 、
-1.234526	ついに はりつけ
-1.234526	ついに 出発
-1.234526	ついに 憐愍
-0.6324661	つき に
-0.6324661	つく こと
-0.6324661	つくっ て
-0.6324661	つけ て
-0.6324661	つつ も
-0.6324661	つぶやき 、
-0.6324661	つぶれ て
-0.6786456	つもり で	-0.1145959
-1.331436	つもり な
-1.331436	つもり なら
-1.331436	つもり は
-0.6324661	つらい 。
-0.6324661	つらかっ た
-0.2807055	つり上げ られ	0.1832913
-0.7763379	て 、	-0.0352537
-1.264455	て い	-0.3571602
-2.358073	て いき
-2.128496	て いく
-3.010864	て いけ
-3.010864	て いこ
-3.010864	て いっ
-3.010864	て いよ
-3.010864	て いよいよ
-0.859884	て いる	0.08257323
-3.010864	て いろ
-3.010864	て おい
-3.010864	て おけ
-2.358073	て おら
-2.358073	て おり
-2.358073	て から
-1.23227	て き	0
-3.010864	て きらきら
-1.475308	て ください	0
-1.92	て くる
-1.123125	て くれ	0.04324808
-2.358073	て くれる
-2.358073	て こ
-1.726499	て こい	-0.05080685
-3.010864	て こと
-3.010864	て しまえ
-1.92	て しまっ	0.04022903
-3.010864	て しわがれ
-3.010864	て すぐ
-3.010864	て つぶやき
-3.010864	て なら
-1.761954	て は	-0.07529128
-3.010864	て はりつけ
-3.010864	て ほしい
-3.010864	て み
-3.010864	て みせる
-2.128496	て みる
-3.010864	て みれ
-2.128496	て も	-0.4047093
-3.010864	て やっ
-2.128496	て やり	-0.1494015
-1.688492	て やる	0.1116739
-2.128496	て やろ	-0.1494015
-2.358073	て ゆく
-3.010864	て わい
-3.010864	て わび
-3.010864	て セリヌンティウス
-3.010864	て 一気に
-3.010864	て 二里
-3.010864	て 仕事
-3.010864	て 動け
-3.010864	て 反駁
-3.010864	て 叫ん
-3.010864	て 哀願
-3.010864	て 問いつめ
-3.010864	て 報い
-3.010864	て 峠
-3.010864	て 影
-3.010864	て 教え
-3.010864	て 時
-3.010864	て 最後
-3.010864	て 村人
-3.010864	て 歩い
-3.010864	て 死な
-3.010864	て 泣い
-3.010864	て 王
-3.010864	て 眠り
-3.010864	て 神
-3.010864	て 私
-3.010864	て 笑っ
-3.010864	て 答え
-3.010864	て 老爺
-3.010864	て 自分
-3.010864	て 自身
-3.010864	て 言っ
-2.358073	て 質問
-3.010864	て 走っ
-3.010864	て 走れる
-3.010864	て 頼ん
-3.010864	て 驚い
-0.6324661	てれ て
-0.7736036	で 、
-1.023481	で あっ	0.07918123
-0.8637803	で ある	-0.5625514
-2.61019	で い
-2.61019	で いちばん
-1.957399	で いる
-2.61019	で うなずい
-1.957399	で うなずき	0.1645315
-2.61019	で おわび
-2.61019	で ここ
-1.325825	で ござい	0.0674667
-2.61019	で しまっ
-2.61019	で しまわ
-2.61019	で すくっ
-1.957399	で ない	-0.1087604
-0.9363309	で は	-0.1923392
-1.519326	で も	-0.02279423
-2.61019	で ゆく
-2.61019	で よい
-2.61019	で よかっ
-2.61019	で 一度
-2.61019	で 会っ
-2.61019	で 低く
-2.61019	で 何
-2.61019	で 倒れる
-2.61019	で 刑場
-2.61019	で 動い
-2.61019	で 山
-2.61019	で 払い
-2.61019	で 暮らし
-2.61019	で 最も
-2.61019	で 歌い
-2.61019	で 相
-2.61019	で 私
-2.61019	で 精いっぱい
-2.61019	で 結婚式
-2.61019	で 老爺
-2.61019	で 耳
-2.61019	で 言い
-2.61019	で 酒宴
-1.711647	でき ず
-0.8292795	でき た	-0.04720535
-1.711647	でき て
-1.058857	でき ない	0.2893369
-1.711647	でき なかっ
-0.8292795	でき ぬ	-0.07661489
-1.711647	でき ませ
-0.9334961	できる こと
-0.9334961	できる ぞ
-0.05115252	です 。	0.0211514
-1.586709	です が
-0.8827655	でも 、
-0.6531883	でも いい	0.1061227
-1.535556	でも 皆
-1.535556	でも 私
-1.535556	でも 長く
-0.9890046	と 、	-0.0305533
-2.524561	と 。
-2.524561	と あん
-1.642193	と いう	-0.1494015
-2.524561	と いえ
-2.524561	と いっ
-2.524561	と うと
-2.524561	と かき分け
-2.524561	と きみ
-2.524561	と さっと
-2.524561	と さらに
-2.524561	と し
-2.524561	と だけ
-2.524561	と なく
-2.524561	と なっ
-1.87177	と の
-1.87177	と は
-2.524561	と も
-2.524561	と もち
-2.524561	と よき
-1.87177	と メロス	0.2605945
-2.524561	と 一緒
-2.524561	と 下流
-2.524561	と 両
-2.524561	と 二
-2.524561	と 信実
-2.524561	と 努め
-1.642193	と 友	-0.05344563
-2.524561	と 口々
-2.524561	と 同じ
-1.87177	と 大声
-1.87177	と 思っ	0.2321853
-1.87177	と 抱擁
-2.524561	と 暴君
-2.524561	と 歩き
-1.87177	と 気
-2.524561	と 決意
-2.524561	と 消え
-2.524561	と 猛然
-2.524561	と 生涯
-2.524561	と 眺め
-2.524561	と 立て
-2.524561	と 答え
-2.524561	と 約束
-2.524561	と 羊
-2.524561	と 考え
-2.524561	と 耳打ち
-2.524561	と 膝
-2.524561	と 自分
-2.524561	と 見つめ
-2.524561	と 言い
-1.87177	と 誠	0.1645315
-2.524561	と 質問
-2.524561	と 身支度
-2.524561	と 遊ん
-2.524561	と 長い
-2.524561	と 響き
-2.524561	と 頼ん
-2.524561	と 願っ
-1.109587	という 、
-1.109587	という もの
-1.109587	という 石工
-0.6324661	とおり 、
-0.6324661	とかいう やつ
-0.8247736	とき 、
-0.8247736	とき から
-1.477564	とき に
-0.8247736	とき は	0.1334491
-0.6324661	とく 、
-0.9334961	ところ です
-0.9334961	ところ を
-1.331436	として ここ
-1.331436	として 彼
-1.331436	として 死ぬ
-1.331436	として 生き延び
-1.331436	として 迎える
-0.9334961	とともに 、
-0.9334961	とともに 聞こえ
-0.6324661	とどまっ て
-0.6324661	ともに やら
-0.6324661	とんでもない うそ
-0.8247736	どう か	-0.05385029
-0.3867001	どう でも	-0.2219062
-1.477564	どう と
-0.6324661	どうか 明日
-0.6324661	どうせ 帰っ
-0.6324661	どうどう と
-0.6324661	どうにか 婿
-0.6324661	どき です
-0.6324661	どっこい 放さ
-0.6324661	どっと 群衆
-0.6324661	ども 、
-0.6324661	どよめい た
-0.9334961	どんな 清らか
-0.9334961	どんな 秘密
-2.255715	な 、
-0.9713505	な 。	-0.000883579
-2.255715	な がら
-1.373348	な こと
-2.255715	な とき
-0.9333432	な の	-0.1008257
-2.255715	な ふてくされ
-1.602925	な もの
-2.255715	な ん
-2.255715	な メロス
-2.255715	な 一
-2.255715	な 会話
-1.602925	な 力
-2.255715	な 声
-2.255715	な 大雨
-2.255715	な 妄想
-2.255715	な 妹
-2.255715	な 小歌
-2.255715	な 悪い
-2.255715	な 暮らし
-2.255715	な 気
-2.255715	な 気持ち
-2.255715	な 用事
-1.164851	な 男	-0.03209639
-2.255715	な 衣装
-2.255715	な ！
-1.602925	ない 、
-0.1918855	ない 。	0.0360775
-1.602925	ない か	0.1625141
-2.255715	ない だろ
-2.255715	ない なら
-2.255715	ない に
-0.9713505	ない の	-0.1710537
-2.255715	ない はず
-2.255715	ない やつ
-2.255715	ない 人
-0.1249387	なかっ た	-0.1225368
-0.8292795	なかっ たら	0.4148346
-0.6324661	なかなか 承諾
-1.477564	ながら 、
-1.477564	ながら 叫ん
-1.477564	ながら 尋ね
-1.477564	ながら 峠
-1.477564	ながら 希望
-1.477564	ながら 清水
-1.477564	ながら 走っ
-0.9339181	なく 、
-1.586709	なく て
-0.9339181	なく なっ	-0.0102749
-0.9339181	なく なる
-1.586709	なく めまい
-1.586709	なく 私
-0.2286541	なけれ ば	-0.3034072
-0.6324661	なぜ 殺す
-0.6324661	なぞ は
-0.6324661	なだめ 、
-0.5405428	なっ た	0.2918
-1.862915	なっ たら
-0.2304489	なっ て	-0.04414552
-0.9334961	など と
-0.9334961	など 決して
-1.109587	なに 、
-1.109587	なに が
-1.109587	なに ひとつ
-0.9334961	なにか 不吉
-0.9334961	なにか 小さく
-0.6324661	なにもかも 、
-1.91122	なら 、
-1.258429	なら ない	0.2893369
-0.1648103	なら ぬ	-0.2566108
-1.91122	なら ば
-1.91122	なら 私
-1.91122	なら ！
-0.2807055	なり 、
-1.331436	なる こと
-1.331436	なる だろ
-1.331436	なる と
-1.331436	なる ところ
-1.331436	なる まで
-1.331436	なん で
-0.2405721	なん の
-0.2807055	なんだか 、
-1.058595	に 、
-2.946333	に い
-2.946333	に いる
-2.946333	に うずくまり
-2.946333	に うなり
-2.946333	に うんと
-2.946333	に おいおい
-2.946333	に かかっ
-2.293543	に かけ
-2.946333	に くれ
-2.946333	に ぐずぐず
-2.946333	に この
-2.946333	に こめ
-2.946333	に ごろりと
-2.946333	に ささげ
-2.946333	に さらわ
-1.623961	に し	0.08244418
-2.946333	に する
-2.946333	に だまさ
-2.946333	に ちがい
-2.946333	に ない
-1.272475	に なっ	-0.1961255
-2.946333	に なら
-2.293543	に なり	0.1645315
-2.063966	に なる
-2.946333	に の
-0.9916479	に は	0.01044355
-2.946333	に はさん
-2.946333	に また
-2.946333	に むち打ち
-1.661968	に も	0.07825455
-2.946333	に や
-2.293543	に やってき	0.1645315
-2.946333	に わめい
-2.946333	に セリヌンティウス
-2.293543	に メロス	0.2605945
-2.946333	に 一
-2.946333	に 一切
-2.946333	に 三
-2.946333	に 上っ
-2.946333	に 上り
-2.946333	に 不
-2.946333	に 二
-2.946333	に 会い
-2.946333	に 倒れ
-2.946333	に 傾き
-2.293543	に 入っ	0.1645315
-2.946333	に 入れ
-2.946333	に 処し
-2.293543	に 出
-2.946333	に 出かける
-2.063966	に 出発
-2.946333	に 列席
-2.946333	に 到達
-2.946333	に 努め
-2.946333	に 勝っ
-2.946333	に 叫び
-2.946333	に 召さ
-2.946333	に 向かっ
-2.946333	に 吸い込ま
-2.946333	に 呼び
-2.946333	に 喜色
-2.946333	に 報い
-2.946333	に 大きな
-2.946333	に 宿し
-2.946333	に 小さく
-2.946333	に 巣くっ
-2.293543	に 帰っ	0.8421789
-2.946333	に 引きずら
-2.293543	に 引き出さ	0.1645315
-2.946333	に 待っ
-2.293543	に 急い	0.02880062
-2.946333	に 情け
-2.946333	に 手
-2.946333	に 投じ
-2.946333	に 捕縛
-2.946333	に 敏感
-2.946333	に 教え
-2.946333	に 望み
-2.946333	に 期待
-2.946333	に 来
-2.946333	に 棍棒
-2.946333	に 橋
-2.946333	に 橋桁
-2.946333	に 歌
-2.946333	に 死な
-2.946333	に 死ぬ
-2.946333	に 殺し
-2.946333	に 気がつか
-2.946333	に 決まっ
-2.946333	に 没し
-2.293543	に 泣き
-2.946333	に 涙
-2.946333	に 深かっ
-2.946333	に 深く
-2.946333	に 潜り込ん
-2.293543	に 王城
-2.946333	に 用事
-2.946333	に 町
-2.946333	に 疲労
-2.946333	に 着い
-2.946333	に 知ら
-2.946333	に 私
-2.946333	に 突入
-2.946333	に 笑お
-2.946333	に 答え
-2.946333	に 置い
-2.946333	に 羊
-2.946333	に 群衆
-2.946333	に 落ち
-2.946333	に 行か
-2.946333	に 行き着く
-2.946333	に 行き着け
-2.946333	に 行わ
-2.946333	に 裏切り者
-2.946333	に 襲いかかり
-2.946333	に 見
-2.946333	に 視線
-2.946333	に 言い
-2.946333	に 許し
-2.946333	に 質問
-2.293543	に 走っ
-2.063966	に 走る	-0.3076981
-2.946333	に 輝い
-2.946333	に 近づき
-2.946333	に 近寄り
-2.946333	に 過ぎ
-2.946333	に 酔っ
-2.946333	に 集まり
-2.946333	に 頬
-2.946333	に 飛び込み
-2.946333	に 鳴り響く
-0.6324661	にぎやか で
-0.6324661	について 走り
-0.6324661	に対して は
-1.306401	ぬ 、	-0.08749443
-0.2340832	ぬ 。	-0.08527189
-1.535978	ぬ うち	0.3924738
-2.188769	ぬ くらい
-2.188769	ぬ こと
-2.188769	ぬ ぞ
-1.535978	ぬ と
-2.188769	ぬ の
-2.188769	ぬ は
-2.188769	ぬ もの
-2.188769	ぬ 大き
-2.188769	ぬ 愛
-0.9334961	ぬる か
-0.9334961	ぬる 覚悟
-0.6324661	ね 。
-1.522879	の 、
-3.109587	の あの
-3.109587	の ある
-3.109587	の いい
-3.109587	の うち
-2.22722	の お
-3.109587	の お子様
-2.22722	の か	0.2217247
-3.109587	の かたまり
-3.109587	の かも
-2.22722	の が	0.007347698
-3.109587	の これしき
-3.109587	の ごちそう
-2.22722	の ごとく
-3.109587	の ささやき
-3.109587	の さま
-3.109587	の しわ
-3.109587	の せい
-3.109587	の た
-1.825222	の ため	0.09947762
-0.8239087	の だ	-0.02473321
-1.825222	の で	-0.1517041
-1.825222	の です	0.7386286
-3.109587	の と
-3.109587	の とおり
-2.22722	の ない
-3.109587	の のんき
-1.39794	の は	-0.1858511
-3.109587	の はらわ
-3.109587	の ひるむ
-3.109587	の ほか
-3.109587	の まっただ中
-3.109587	の まま
-2.22722	の も
-3.109587	の もの
-2.018723	の よう	0.2201724
-3.109587	の わから
-3.109587	の アレキス
-3.109587	の マント
-2.456797	の 一	0.1343303
-3.109587	の 一家
-3.109587	の 一片
-3.109587	の 不信
-3.109587	の 両足
-2.456797	の 中
-3.109587	の 事情
-2.018723	の 人	-0.04772918
-3.109587	の 人種
-3.109587	の 人間
-3.109587	の 代わり
-3.109587	の 仲間
-2.456797	の 体
-2.456797	の 信実
-3.109587	の 偉大
-2.456797	の 兄
-3.109587	の 到着
-3.109587	の 刻限
-2.456797	の 前	0.2321853
-2.456797	の 力	0.09747083
-3.109587	の 勇
-2.456797	の 勇者
-3.109587	の 十
-3.109587	の 午前
-3.109587	の 半ば
-3.109587	の 卑劣
-2.22722	の 友
-3.109587	の 友人
-3.109587	の 叫び
-3.109587	の 台
-3.109587	の 右
-2.22722	の 命	-0.0281818
-3.109587	の 命令
-3.109587	の 囲み
-3.109587	の 地位
-3.109587	の 塔
-3.109587	の 士
-3.109587	の 声
-3.109587	の 大蛇
-3.109587	の 大路
-3.109587	の 太陽
-3.109587	の 奥底
-3.109587	の 奸佞
-2.22722	の 妹
-2.22722	の 姿
-3.109587	の 子
-3.109587	の 存する
-3.109587	の 季節
-3.109587	の 孤独
-3.109587	の 定まっ
-3.109587	の 定法
-3.109587	の 宣誓
-2.22722	の 家
-3.109587	の 少女
-3.109587	の 山賊
-3.109587	の 川
-3.109587	の 希望
-3.109587	の 席
-3.109587	の 帰り
-3.109587	の 平和
-3.109587	の 幹
-3.109587	の 弟
-3.109587	の 弟子
-3.109587	の 張り
-3.109587	の 後
-3.109587	の 徒
-1.825222	の 心	0.1031881
-3.109587	の 心構え
-3.109587	の 心臓
-3.109587	の 忠誠
-3.109587	の 思うつぼ
-3.109587	の 恥
-3.109587	の 情
-3.109587	の 懐中
-3.109587	の 手
-3.109587	の 支度
-3.109587	の 旅人
-3.109587	の 日暮れ
-3.109587	の 日没
-3.109587	の 日限
-3.109587	の 星
-3.109587	の 時
-3.109587	の 暗い
-3.109587	の 望み
-3.109587	の 未練
-3.109587	の 柱
-3.109587	の 様子
-3.109587	の 樹木
-3.109587	の 死力
-3.109587	の 残
-3.109587	の 気がかり
-3.109587	の 水源
-3.109587	の 汗
-3.109587	の 沈ま
-3.109587	の 流れる
-3.109587	の 深い
-3.109587	の 灼熱
-3.109587	の 無二
-2.22722	の 牧人
-3.109587	の 王
-2.22722	の 男	-0.0289703
-2.22722	の 町
-3.109587	の 番
-3.109587	の 疲労
-3.109587	の 祭壇
-3.109587	の 結婚式
-3.109587	の 縄
-3.109587	の 罪
-3.109587	の 群衆
-3.109587	の 肩
-3.109587	の 背後
-3.109587	の 胸
-3.109587	の 草原
-3.109587	の 葉
-3.109587	の 薄明
-3.109587	の 血液
-3.109587	の 衣装
-3.109587	の 裂けめ
-3.109587	の 裸体
-3.109587	の 言う
-3.109587	の 警
-2.456797	の 豪雨
-3.109587	の 足
-3.109587	の 道
-1.825222	の 間	0.02691881
-3.109587	の 闘争
-3.109587	の 隅
-3.109587	の 雲
-3.109587	の 面前
-3.109587	の 頃
-2.456797	の 頬	0.8305311
-3.109587	の 頭
-3.109587	の 顔
-3.109587	の 願い
-0.6324661	のそのそ 王城
-0.6324661	のに 。
-0.6324661	のみ 、
-0.6324661	のん で
-0.9334961	のんき さ
-0.9334961	のんき な
-0.3110142	は 、	0.006561204
-3.05407	は 。
-3.05407	は あたりまえ
-3.05407	は ある
-3.05407	は いけ
-3.05407	は いよいよ
-3.05407	は おり
-3.05407	は お互い
-3.05407	は かなっ
-2.401279	は きみ	-0.09395274
-2.401279	は この
-3.05407	は ご
-3.05407	は ござい
-3.05407	は し
-2.401279	は すでに
-3.05407	は ぜひとも
-3.05407	は その
-3.05407	は それ
-3.05407	は ただ
-1.963206	は でき
-1.518514	は ない	-0.3300799
-2.171702	は なかっ	0.06265213
-3.05407	は なく
-1.769705	は なら	0.2849884
-3.05407	は にぎやか
-3.05407	は は
-3.05407	は ひょいと
-3.05407	は まだ
-3.05407	は もっと
-3.05407	は もみ手
-2.401279	は メロス
-3.05407	は 不信
-3.05407	は 両手
-3.05407	は 乱心
-3.05407	は 何
-2.401279	は 信頼	0.02880062
-3.05407	は 優しい
-3.05407	は 兄
-3.05407	は 刻々
-3.05407	は 十
-3.05407	は 友
-3.05407	は 命
-3.05407	は 問題
-3.05407	は 夜
-3.05407	は 夢
-3.05407	は 川岸
-3.05407	は 幾度
-3.05407	は 必死
-3.05407	は 急ぎ
-3.05407	は 悔しく
-3.05407	は 悪びれ
-3.05407	は 悲しい
-3.05407	は 情けない
-3.05407	は 政治
-3.05407	は 日
-3.05407	は 日没
-3.05407	は 明くる日
-2.401279	は 村
-3.05407	は 来
-3.05407	は 残ら
-3.05407	は 殺さ
-3.05407	は 気
-3.05407	は 氾濫
-2.171702	は 沈ま	0.01088703
-3.05407	は 波
-2.401279	は 激怒	0.1645315
-3.05407	は 無理
-3.05407	は 無言
-3.05407	は 父
-2.401279	は 王	-0.05124116
-3.05407	は 王様
-3.05407	は 生まれ
-3.05407	は 疲れ
-3.05407	は 疾風
-3.05407	は 目
-3.05407	は 真
-3.05407	は 短剣
-1.963206	は 私	0.03088165
-3.05407	は 竹馬
-3.05407	は 笑っ
-3.05407	は 答え
-3.05407	は 精いっぱい
-3.05407	は 約束
-3.05407	は 胸
-3.05407	は 腕
-3.05407	は 茫然
-3.05407	は 落ち着い
-3.05407	は 蒼白
-3.05407	は 言っ
-3.05407	は 負け
-3.05407	は 赤い
-2.401279	は 走っ	0.1343303
-3.05407	は 走り
-3.05407	は 起き
-3.05407	は 足もと
-3.05407	は 跳ね
-3.05407	は 身
-3.05407	は 遅かっ
-3.05407	は 野
-3.05407	は 静か
-3.05407	は 頬
-3.05407	は 額
-3.05407	は 馬
-3.05407	は 驚き
-3.05407	は 高く
-3.05407	は 黒い
-0.6324661	はい 、
-0.6324661	はさん だ
-0.2807055	はず だ
-0.6324661	はたと 、
-0.6324661	はっ た
-0.6324661	はで な
-0.6324661	はね 飛ばし
-0.6324661	はばかる 低
-0.6324661	はらわ た
-0.6324661	はり こう
-0.6786456	はりつけ に
-0.6786456	はりつけ の
-1.331436	はりつけ 台
-0.6324661	はるか 向こう
-0.6324661	はるばる 町
-0.5596473	ば 、
-1.808557	ば だいじょうぶ
-0.4861852	ば なら	-0.1489683
-1.808557	ば 十字架
-0.6324661	ばか な
-0.6324661	ばかばかしい 。
-1.331436	ばかり 、
-1.331436	ばかり で
-0.6786456	ばかり に
-1.331436	ばかり を
-0.6324661	ばら に
-0.6324661	ぱ みじん
-0.9334961	ひしと 抱き合い
-0.9334961	ひしと 抱き締め
-0.6324661	ひっそり し
-0.6324661	ひとつ 考え
-0.6324661	ひと口 飲ん
-0.6324661	ひと眠り し
-0.6324661	ひどく 赤面
-0.6324661	ひょいと 、
-0.6324661	ひょっとしたら 、
-0.6324661	ひるむ 隙
-0.6324661	ふい と
-0.6324661	ふてくされ た
-0.6324661	ふと 耳
-0.6324661	ふり し
-0.6324661	ふるさと 。
-0.6324661	ぶと 流れ
-0.6324661	ぶどう の
-0.2807055	ぶらぶら 歩い
-0.6324661	ぶり で
-0.6324661	ぶる ん
-0.7578268	へ の
-1.410617	へ 到着
-0.7578268	へ 帰っ	0.8421789
-1.410617	へ 行か
-0.9334961	べき 宝
-0.9334961	べき 悪徳
-0.9334961	ほう が
-0.9334961	ほう と
-0.4567968	ほか に
-1.109587	ほか は
-0.6324661	ほくそ笑ん だ
-0.6324661	ほしい 。
-0.9334961	ほっと し
-0.9334961	ほっと ため息
-0.6324661	ほとんど 全
-1.234526	ほど に
-1.234526	ほど の
-1.234526	ほど 努力
-1.234526	ほど 音
-0.6324661	ほどか れ
-0.6324661	ほほえみ 、
-0.6324661	ほんの 少し
-0.6324661	ぽつりぽつり 雨
-0.6324661	まい か
-0.9334961	まえ 、
-0.9334961	まえ の
-0.6324661	まごつい た
-0.6324661	まさか 私
-0.6324661	まさしく 王
-0.6324661	まさに 最後
-0.1436621	まし た	0.1714958
-0.6324661	まじまじ と
-1.74641	ます 、
-0.03476211	ます 。	-0.02121887
-0.6324661	ますます 激しく
-0.6324661	まず 、
-0.4567968	ませ ぬ	0.2223902
-1.109587	ませ ん
-0.5817355	また 、
-1.234526	また すぐ
-1.234526	また 先
-1.410617	まだ なん
-1.410617	まだ 十分
-0.5282496	まだ 日	-0.3993584
-1.410617	まだ 間
-0.6324661	まだまだ だいじょうぶ
-0.6324661	まっすぐ に
-0.6324661	まっただ中 を
-1.711647	まで 、
-0.4272825	まで に	-0.1949392
-1.711647	まで 待っ
-1.711647	まで 来
-1.711647	まで 来れ
-1.711647	まで 突破
-1.711647	まで 議論
-1.711647	まで 走っ
-0.6324661	まとも に
-0.6324661	まどろん で
-1.331436	まま ここ
-1.331436	まま で
-1.331436	まま なら
-0.6786456	まま に
-0.6324661	まもなく 床
-0.6324661	み た
-0.6324661	みごと 、
-1.109587	みじん に
-0.4567968	みじん も	-0.1517102
-0.6324661	みせる 。
-1.109587	みる つもり
-1.109587	みる と
-1.109587	みる の
-0.6324661	みれ ば
-0.6324661	むち打ち 、
-0.6324661	むんむん 蒸し暑い
-0.4567968	め に
-1.109587	め の
-0.6324661	めいめい 気持ち
-0.6324661	めまい を
-0.5740313	も 、	0.0009067077
-2.507527	も いる
-2.507527	も おもしろい
-2.507527	も きみ
-2.507527	も こらえ
-2.507527	も し
-2.507527	も すでに
-1.854737	も せ
-2.507527	も その
-2.507527	も そん
-2.507527	も つくっ
-1.854737	も でき
-2.507527	も ともに
-0.9719713	も ない	-0.3300799
-1.854737	も なかっ	0.4442389
-2.507527	も なく
-2.507527	も やみ
-2.507527	も 仲間
-2.507527	も 会釈
-2.507527	も 前進
-2.507527	も 哀れ
-2.507527	も 問題
-2.507527	も 小降り
-2.507527	も 尽き
-2.507527	も 撃ち
-2.507527	も 枝
-2.507527	も 根
-2.507527	も 死ぬ
-2.507527	も 気味
-1.854737	も 照覧
-2.507527	も 燃える
-2.507527	も 疑わ
-2.507527	も 私
-2.507527	も 笑わ
-2.507527	も 落ち
-2.507527	も 見え
-2.507527	も 覚悟
-2.507527	も 言い
-2.507527	も 言える
-2.507527	も 言わ
-2.507527	も 負け
-2.507527	も 買っ
-2.507527	も 速く
-2.507527	も 間近
-2.507527	も 頑強
-0.5416021	もう 、	-0.07038473
-1.632466	もう いっそ
-1.632466	もう おまえ
-1.632466	もう すでに
-1.632466	もう ちょっと
-1.632466	もう な
-1.632466	もう 一つ
-0.6324661	もし 私
-0.6324661	もた せ
-0.6324661	もたげ 、
-0.9334961	もち まえ
-0.9334961	もち 続け
-0.2807055	もっ て
-0.9334961	もっと 、
-0.9334961	もっと 恐ろしく
-0.6324661	もともと 私欲
-1.632466	もの さ
-1.632466	もの だ
-0.9796755	もの で
-1.632466	もの の
-0.9796755	もの は
-0.9796755	もの も
-1.632466	もの を
-0.9334961	もはや いも
-0.9334961	もはや 故郷
-0.6324661	もみ手 し
-1.109587	や ら
-1.109587	や ん
-1.109587	や 及ぶ
-1.109587	やがて 殺さ
-1.109587	やがて 車軸
-1.109587	やがて 静か
-0.6324661	やけに 寂しい
-0.6324661	やっ た
-0.2807055	やってき た
-0.6324661	やっと 、
-0.9334961	やつ じゃ
-0.9334961	やつ ばら
-0.9334961	やはり 、
-0.9334961	やはり 未練
-0.6324661	やみ 、
-0.2272196	やめ て	-0.524622
-0.9334961	やら れる
-0.9334961	やら 祝宴
-0.2272196	やり たい
-1.410617	やる 。
-1.410617	やる が
-0.3197533	やる の	-0.08420146
-0.2272196	やろ う
-0.6324661	ゆえ 、
-1.109587	ゆく 。
-1.109587	ゆく 友
-1.109587	ゆく 太陽
-0.6324661	ゆっくり 歩こ
-0.6324661	ゆらゆら 地平線
-0.8827655	よ 、
-0.2131839	よ 。	0.009048017
-0.4958446	よい 。
-1.586709	よい の
-1.586709	よい 人
-1.586709	よい 友
-1.586709	よい 友達
-1.586709	よい 夫婦
-0.6555455	よう な
-0.1597008	よう に	-0.006615769
-0.6324661	よかっ た
-0.6324661	よかろ う
-0.2272196	よき 友	-0.05344563
-0.6324661	よくも 私
-0.6324661	よくよく 不幸
-1.109587	より つらい
-0.4567968	より ほか
-0.6324661	よろしい 、
-0.6324661	よろめい て
-1.109587	よろよろ と
-1.109587	よろよろ 二
-1.109587	よろよろ 起き上がっ
-0.5817355	ら の
-1.234526	ら は
-1.234526	ら を
-0.9334961	らしい 。
-0.9334961	らしい 花嫁
-1.586709	られ 、
-0.2643364	られ て	0.003219002
-1.586709	られ ない
-1.586709	られ ぬ
-0.6324661	られる の
-0.3245111	れ た	0.2423051
-1.91122	れ つつ
-0.6268548	れ て	0.008086668
-1.91122	れ なけれ
-1.91122	れ ぬ
-1.91122	れ まし
-1.91122	れ ます
-0.2643364	れる 。	-0.01505653
-1.586709	れる ため
-1.586709	れる の
-1.586709	れる よう
-0.4567968	わい 。
-1.109587	わい た
-0.6324661	わかっ て
-0.2272196	わから ぬ	0.2816008
-0.9334961	わが身 に
-0.9334961	わが身 を
-0.6324661	わけ の
-1.535556	わし だって
-0.8827655	わし に
-0.6531883	わし の
-1.535556	わし は
-1.535556	わし を
-0.6324661	わび た
-0.6324661	わめい た
-1.08715	を 、	-0.01941543
-1.725979	を 。	-0.3078406
-2.974889	を あげる
-2.974889	を いい
-2.322098	を お
-2.974889	を おっしゃる
-2.974889	を かがめ
-2.974889	を かき分け
-2.974889	を かけ
-2.974889	を からかっ
-2.974889	を きかせ
-2.974889	を くぐり抜け
-2.322098	を さえ
-1.884025	を し	-0.07720669
-2.322098	を する
-2.974889	を せせら笑う
-2.974889	を たたい
-2.974889	を たたえ
-2.974889	を つい
-2.974889	を つく
-2.974889	を つけ
-2.974889	を なだめ
-2.974889	を のみ
-2.974889	を のん
-2.974889	を はね
-2.974889	を はばかる
-2.974889	を ひしと
-2.974889	を ぶらぶら
-2.322098	を も
-2.974889	を もた
-2.974889	を もたげ
-2.974889	を もち
-2.322098	を もっ	0.1645315
-2.974889	を メロス
-2.974889	を 一つ
-2.974889	を 三
-2.322098	を 上げ	0.1645315
-2.974889	を 下っ
-2.974889	を 与え
-2.974889	を 両手
-2.974889	を 人質
-2.974889	を 仰い
-2.974889	を 仰天
-1.652517	を 信じ	0.03841646
-2.974889	を 全く
-2.974889	を 出
-2.974889	を 出発
-2.974889	を 助け
-2.974889	を 取り直し
-2.974889	を 取り返し
-2.974889	を 受け
-2.974889	を 叱っ
-2.974889	を 叱り
-2.974889	を 吹き
-2.974889	を 呼ぶ
-2.974889	を 命じ
-2.974889	を 垂れ
-2.974889	を 大きく
-2.974889	を 奪い取っ
-2.322098	を 始め
-2.974889	を 守り
-2.322098	を 守る
-2.974889	を 守れ
-2.974889	を 察し
-2.974889	を 小耳
-2.974889	を 尽くし
-2.974889	を 引き立て
-2.974889	を 強く
-2.974889	を 待ち伏せ
-2.974889	を 待っ
-2.974889	を 思え
-2.974889	を 急い
-2.974889	を 急ぎ
-2.974889	を 怪しく
-2.322098	を 感じ
-2.974889	を 憎ん
-2.974889	を 打た
-2.974889	を 打ち破る
-2.974889	を 打っ
-2.974889	を 投げ出し
-2.974889	を 折っ
-2.974889	を 折り曲げ
-2.974889	を 抱い
-2.974889	を 押しのけ
-2.974889	を 拒め
-2.974889	を 拳
-2.974889	を 挙げ
-2.974889	を 挙げる
-2.974889	を 振っ
-2.974889	を 振り上げ
-2.974889	を 捕まえ
-2.974889	を 揺すぶっ
-2.974889	を 放っ
-2.974889	を 放免
-2.974889	を 救う
-2.974889	を 断ち割っ
-2.974889	を 明日
-2.974889	を 暴君
-2.974889	を 望ん
-2.974889	を 村
-2.974889	を 横切り
-2.974889	を 欺い
-2.974889	を 欺く
-2.974889	を 歌い
-2.974889	を 歌っ
-2.974889	を 死な
-2.974889	を 残し
-1.884025	を 殴っ	0.2038471
-2.974889	を 殴り
-1.884025	を 殴れ	0.6966411
-1.725979	を 殺し	0.09915449
-2.974889	を 決意
-2.974889	を 泳い
-2.974889	を 泳ぎ
-2.974889	を 流す
-2.974889	を 浮かべ
-2.974889	を 浴びせ
-2.974889	を 澄まし
-2.974889	を 無心
-2.322098	を 疑う
-2.322098	を 疑っ	0.02880062
-2.974889	を 登り
-2.974889	を 目撃
-2.974889	を 相手
-2.974889	を 着る
-2.974889	を 破る
-2.974889	を 破壊
-2.974889	を 磔刑
-2.974889	を 突破
-2.974889	を 笑い
-2.974889	を 絞め殺し
-2.974889	を 続け
-2.974889	を 置い
-2.974889	を 聞い
-2.974889	を 聞き入れ
-2.974889	を 腕
-2.974889	を 落とし
-2.974889	を 覆い
-2.974889	を 見
-2.322098	を 見せ	0.1645315
-2.974889	を 見つけ
-2.974889	を 見つめ
-2.974889	を 見る
-2.322098	を 言う	-0.05567776
-2.974889	を 訪れ
-2.974889	を 誇っ
-2.974889	を 語っ
-2.974889	を 調え
-2.322098	を 買い
-2.322098	を 赤らめ
-2.974889	を 越え
-2.974889	を 蹴飛ばし
-2.974889	を 重ね
-2.974889	を 開始
-2.974889	を 限り
-2.974889	を 除か
-2.974889	を 飛び越え
-2.974889	を 飾り
-2.322098	を 駆け	0.1645315
-2.974889	を 駆け抜け
-2.974889	を ！
-0.6324661	をもって は
-1.331436	ん 。
-1.331436	ん か
-1.331436	ん と
-1.331436	ん ぬる
-1.331436	ん ぶと
-0.6324661	アレキス 様
-0.2272196	クス の	-0.5368265
-0.2272196	シ ラ	-0.1494015
-1.808557	セリヌンティウス 、
-1.155767	セリヌンティウス 。
-1.808557	セリヌンティウス で
-1.808557	セリヌンティウス という
-1.155767	セリヌンティウス の
-0.5241925	セリヌンティウス は	0.07565627
-1.155767	セリヌンティウス よ	-0.09684639
-1.808557	セリヌンティウス 様
-0.9334961	ゼウス に
-0.9334961	ゼウス よ
-1.109587	ディオニス の
-0.4567968	ディオニス は
-0.9334961	フィロストラトス 。
-0.9334961	フィロストラトス で
-0.2807055	マント を
-1.630912	メロス 、
-1.860489	メロス 。
-1.860489	メロス が
-2.51328	メロス だ
-1.422416	メロス に	-0.2843621
-0.9265711	メロス の
-0.2087157	メロス は	0.06015847
-2.51328	メロス ほど
-1.630912	メロス も	0.03608812
-1.860489	メロス よ	0.2534493
-2.51328	メロス を
-2.51328	メロス 様
-0.2272196	ラ クス	-0.1494015
-0.3100939	一 人	0.07311793
-0.9796755	一 度
-1.632466	一 牧人
-1.632466	一 隊
-1.109587	一つ 、
-1.109587	一つ し
-1.109587	一つ の
-0.6324661	一事 だ
-0.6324661	一切 の
-0.2807055	一刻 と
-0.6324661	一団 の
-0.6324661	一家 も
-0.6324661	一度 、
-0.6324661	一挙 に
-0.6324661	一撃 、
-0.6324661	一斉 に
-0.2807055	一気に 峠	0.3924738
-0.6324661	一片 の
-0.6324661	一生 この
-0.6324661	一睡 も
-0.6324661	一緒 に
-0.2807055	万 歳
-1.711647	三 、
-1.058857	三 人
-1.711647	三 度
-0.4272825	三 日	-0.2279322
-1.058857	三 日間
-1.711647	三 歩
-0.6324661	三里 行き
-0.2807055	上げ て
-0.6324661	上っ て
-0.6324661	上り 、
-0.6324661	下っ た
-0.6324661	下流 に
-0.6324661	不 似合い
-0.2807055	不信 の
-0.2807055	不吉 な
-0.6324661	不名誉 の
-0.6324661	不安 に
-0.6324661	不幸 な
-0.6324661	与え て
-0.6324661	世の中 の
-0.6324661	世界 の
-0.6324661	世継ぎ を
-0.6324661	両 腕
-0.2807055	両手 で
-0.6324661	両足 に
-0.9334961	中 から
-0.9334961	中 で
-0.6324661	中途 で
-0.6324661	久しく 会わ
-0.6324661	乱れ 華やか
-0.9334961	乱心 か
-0.9334961	乱心 で
-0.9334961	事情 が
-0.9334961	事情 を
-1.535556	二 、
-0.4446921	二 人
-0.8827655	二 年
-1.535556	二 度
-0.6324661	二里 行き
-0.6324661	五臓 が
-1.109587	亭主 が
-1.109587	亭主 と
-1.109587	亭主 を
-1.498189	人 が	-0.1204393
-2.15098	人 ずつ
-1.268612	人 たち
-2.15098	人 として
-1.268612	人 に
-0.5642715	人 の	-0.02390458
-2.15098	人 は
-2.15098	人 も
-0.5642715	人 を	-0.2126618
-2.15098	人 同時に
-2.15098	人 暮らし
-2.15098	人 殺さ
-0.6324661	人々 は
-0.6324661	人一倍 に
-0.6324661	人種 だ
-1.109587	人質 として
-1.109587	人質 に
-1.109587	人質 一
-1.109587	人間 、
-1.109587	人間 は
-1.109587	人間 世界
-0.7457221	今 、
-1.183795	今 こそ
-1.836586	今 こんなに
-1.836586	今 だって
-1.183795	今 に
-0.5142139	今 は	0.2447578
-0.9334961	今宵 、
-0.9334961	今宵 呆然
-0.2807055	今度 は
-0.3521583	今日 は
-1.234526	今日 未明
-0.6324661	今頃 は
-0.6324661	仕事 を
-0.6324661	他 に
-0.6324661	代わり に
-0.6324661	仰い で
-0.6324661	仰天 さ
-0.9334961	仲間 に
-0.9334961	仲間 の
-0.6324661	伏し 、
-0.6324661	会 うた
-0.6324661	会い 、
-0.6324661	会っ た
-0.6324661	会わ なかっ
-0.6324661	会話 を
-0.6324661	会釈 し
-0.6324661	似合い な
-0.6324661	低 声
-0.6324661	低く 笑っ
-1.109587	体 で
-0.4567968	体 を
-1.477564	何 か
-0.5951963	何 も	-0.04962398
-0.5951963	何 を	-0.09653685
-1.021068	信じ た
-0.3894939	信じ て	-0.02243839
-0.5829948	信じ られ	0.2693317
-0.6324661	信ずる こと
-1.331436	信実 だの
-1.331436	信実 と
-0.6786456	信実 の
-1.331436	信実 は
-0.6324661	信念 を
-0.4567968	信頼 さ	-0.04866967
-1.109587	信頼 に
-0.6324661	倍 も
-0.9334961	倒し 、
-0.9334961	倒し 韋
-0.6324661	倒れ 伏し
-0.6324661	倒れる の
-0.6324661	偉い 男
-0.6324661	偉大 な
-0.6324661	傾き かけ
-0.9334961	僅か ながら
-0.9334961	僅か 答え
-0.6324661	優しい 亭主
-0.6324661	優しく ほほえみ
-1.331436	兄 に
-0.4490683	兄 の	-0.08538218
-1.331436	兄 は
-0.6324661	先 を
-0.9334961	先刻 、
-0.9334961	先刻 の
-0.9334961	光 も
-0.9334961	光 を
-0.6324661	光っ て
-0.2807055	入っ て
-0.6324661	入れ て
-0.9334961	全 裸体
-0.9334961	全 里程
-0.6324661	全く 気
-0.6324661	全て を
-0.6324661	全体 が
-0.6324661	全身 萎え
-0.9334961	全部 あげよ
-0.9334961	全部 を
-0.4567968	六 の
-1.109587	六 人
-0.6324661	内気 な
-0.6324661	再び 立っ
-0.6324661	処し て
-0.6324661	処刑 まで
-0.5951963	出 た	0.3645963
-0.3867001	出 て	0.007764135
-0.6324661	出かける 。
-0.6786456	出発 し
-1.331436	出発 しよ
-1.331436	出発 すれ
-1.331436	出発 を
-0.6324661	分 間に合う
-0.6324661	刑 吏
-1.234526	刑場 いっぱい
-0.5817355	刑場 に
-1.234526	刑場 の
-0.6324661	列席 し
-0.9334961	初め から
-0.9334961	初め は
-0.6324661	初めて きみ
-0.6324661	初夏 、
-0.9334961	到着 し
-0.9334961	到着 に
-0.6324661	到達 し
-0.6324661	刻 一刻
-0.6324661	刻々 に
-0.6324661	刻み込ま れ
-0.6324661	刻限 まで
-0.2272196	前 に
-0.6324661	前方 の
-0.6324661	前進 かなわ
-1.234526	力 に
-0.3521583	力 を	-0.06153913
-0.6324661	力いっぱい に
-0.9334961	助け て
-0.9334961	助け に
-0.9334961	努め た
-0.9334961	努め て
-0.6324661	努力 し
-0.6324661	勇 、
-1.234526	勇者 、
-1.234526	勇者 だ
-1.234526	勇者 に
-1.234526	勇者 は
-0.6324661	動い て
-0.2807055	動け なく	-0.1040598
-0.6324661	勝っ た
-0.6324661	勝手 に
-0.6324661	勢 一挙
-0.6324661	匹 の
-1.331436	十 倍
-0.6786456	十 六	0.02880062
-1.331436	十 分
-1.331436	十 里
-0.6324661	十分 の
-0.6324661	十字架 に
-0.6324661	十里 の
-0.6324661	午前 、
-0.6324661	午後 の
-0.6324661	半ば に
-0.6324661	卑劣 を
-0.6324661	南無 三
-0.6324661	単純 な
-0.6324661	及ぶ 。
-1.887739	友 、
-1.887739	友 が
-1.887739	友 で
-0.7968746	友 と	-0.3210441
-1.887739	友 に
-1.005371	友 の	-0.09206665
-1.005371	友 は	-0.2481377
-1.887739	友 よ
-1.005371	友 を
-0.9334961	友人 だ
-0.9334961	友人 を
-0.9334961	友達 が
-0.9334961	友達 セリヌンティウス
-0.6324661	反駁 し
-0.6324661	取り直し て
-0.6324661	取り返し 、
-0.6324661	受け て
-0.9334961	口 から
-0.9334961	口 で
-0.6324661	口々 に
-0.9334961	叫び ながら
-0.9334961	叫び を
-0.2807055	叫ん だ
-0.6324661	召さ れ
-0.2807055	台 に
-0.6324661	叱っ て
-0.6324661	叱り ながら
-0.6324661	右 頬
-0.9334961	同じ くらい
-0.9334961	同じ こと
-0.6324661	同時に 言い
-0.2807055	名誉 を
-0.9334961	吏 に
-0.9334961	吏 ！
-0.6324661	向かっ て
-0.6324661	向こう に
-0.6324661	吸い込ま れる
-0.6324661	吹き 、
-0.6324661	呆然 、
-0.6324661	呼び たて
-0.6324661	呼ぶ が
-0.4567968	呼吸 も
-1.109587	呼吸 を
-0.5951963	命 が	-0.09389314
-1.477564	命 なぞ
-1.477564	命 の
-0.8247736	命 も
-0.6324661	命じ て
-0.6324661	命乞い など
-0.9334961	命令 で
-0.9334961	命令 を
-0.6324661	哀れ と
-0.6324661	哀願 し
-0.6324661	品々 を
-0.6324661	問いつめ た
-0.2272196	問題 で	-0.09379327
-0.6324661	喉 が
-0.6324661	喜色 を
-0.6324661	嘲笑 し
-0.6324661	噴き 出
-0.6324661	四肢 を
-0.6324661	回し 、
-0.6324661	回復 とともに
-0.6324661	困憊 の
-0.6324661	囲み から
-0.6324661	国王 は
-0.6324661	地 は
-0.6324661	地上 で
-0.6324661	地位 を
-0.6324661	地平線 に
-0.6324661	垂れ て
-0.9334961	報い た
-0.9334961	報い なけれ
-0.2807055	塔 楼
-0.6324661	士 として
-0.7043408	声 が
-0.4958446	声 で
-0.9339181	声 を
-0.9334961	夕日 ばかり
-0.9334961	夕日 を
-0.6324661	外 の
-1.331436	夜 、
-1.331436	夜 だっ
-1.331436	夜 でも
-1.331436	夜 に
-1.331436	夜 の
-0.6324661	夜明け まで
-1.331436	夢 から
-0.6786456	夢 だ	0.4581747
-0.6786456	夢 を
-0.6324661	夢見心地 で
-0.6324661	大き な
-0.9334961	大きい もの
-0.9334961	大きい 夕日
-0.9334961	大きく なっ
-0.9334961	大きく 振っ
-0.6324661	大きな 胴震い
-1.109587	大事 だっ
-1.109587	大事 です
-1.109587	大事 な
-0.6324661	大切 な
-0.9334961	大声 あげ
-0.9334961	大声 で
-0.6324661	大蛇 の
-0.6324661	大路 を
-0.6324661	大雨 と
-0.9334961	天 、
-0.9334961	天 を
-1.109587	太陽 が
-1.109587	太陽 の
-1.109587	太陽 も
-0.9334961	夫婦 に
-0.9334961	夫婦 は
-0.6324661	奥底 が
-0.6324661	奪い取っ て
-0.6324661	女房 も
-0.6324661	奸佞 邪知
-0.6324661	好き な
-0.6324661	妄想 で
-1.711647	妹 が
-1.711647	妹 たち
-1.058857	妹 と
-1.711647	妹 に
-1.058857	妹 は
-1.711647	妹 も
-1.711647	妹 夫婦
-1.711647	妹 婿
-1.058857	妹 様
-0.9334961	始め た
-0.9334961	始め て
-1.109587	姿 に
-1.109587	姿 も
-1.109587	姿 を
-0.6324661	威厳 を
-0.6324661	娘 さん
-0.5817355	婿 の	-0.1552397
-1.234526	婿 を
-1.234526	婿 様
-0.6324661	嫌い な
-0.6324661	子 の
-0.6324661	存する ところ
-0.6324661	季節 まで
-0.6324661	孤独 が
-0.6324661	守り ます
-0.9334961	守る ため
-0.9334961	守る 希望
-0.6324661	守れ 。
-0.6324661	定まっ た
-0.6324661	定法 で
-0.9334961	宝 と
-0.9334961	宝 な
-0.6324661	宣誓 が
-0.9334961	宴席 から
-0.9334961	宴席 の
-1.410617	家 が
-0.7578268	家 に
-1.410617	家 の
-1.410617	家 へ
-1.410617	家 を
-0.6324661	宿し た
-0.9334961	寂しい 。
-0.9334961	寂しい こと
-0.6324661	寝 すごし
-0.6324661	寝転がっ た
-0.6324661	察し た
-0.6324661	対岸 の
-0.6324661	尋ね た
-0.9334961	小さく 、
-0.9334961	小さく ささやき
-0.6324661	小屋 に
-0.6324661	小川 を
-0.6324661	小歌 を
-0.6324661	小耳 に
-0.2807055	小降り に	-0.1339885
-0.6324661	小鳥 が
-1.331436	少し 、
-1.331436	少し ずつ
-1.331436	少し でも
-1.331436	少し も
-1.331436	少し 事情
-0.6324661	少しく はで
-0.6324661	少女 が
-0.6324661	尽き た
-0.6324661	尽くし て
-0.6324661	山 の
-1.234526	山賊 が
-1.234526	山賊 たち
-1.234526	山賊 の
-1.234526	山賊 を
-0.6324661	山越え 、
-0.6324661	岩 の
-0.1436621	峠 を	-0.0697071
-0.6324661	川 を
-0.6324661	川岸 に
-0.6324661	巡邏 の
-0.6324661	巣くっ た
-0.6324661	差し出す こと
-0.6324661	巻き 、
-0.6324661	希代 の
-1.109587	希望 が
-0.4567968	希望 で	-0.09391131
-0.6324661	席 を
-0.04575749	帰っ て	-0.168525
-0.6324661	帰り を
-0.4567968	平和 だ	0.4581747
-1.109587	平和 を
-0.6324661	平気 で
-0.9334961	年 ぶり
-0.9334961	年 前
-0.6324661	幹 に
-0.6324661	幾分 小降り
-0.9334961	幾度 か
-0.9334961	幾度 と
-0.6324661	床 に
-0.5817355	度 、
-1.234526	度 だけ
-1.234526	度 だって
-0.6324661	引きずら れ
-0.6324661	引きずる 流れ
-0.2807055	引き出さ れ
-0.6324661	引き立て 、
-0.6324661	弟 に
-0.6324661	弟子 で
-0.6324661	張り さける
-0.6324661	強い 信念
-0.6324661	強く し
-0.6324661	影 なく
-1.234526	彼 の
-0.5817355	彼 は
-1.234526	彼 を
-0.6324661	待ち伏せ し
-0.08824516	待っ て	-0.1381108
-0.6324661	待つ こと
-0.2807055	待て 。
-0.6324661	律儀 な
-0.6324661	後 について
-0.6324661	徐々に つり上げ
-0.6324661	徒 で
-0.6324661	御免 こうむっ
-1.477564	心 に
-1.477564	心 の
-0.5951963	心 は	-0.2481377
-0.8247736	心 を
-0.6324661	心構え な
-0.2807055	心臓 を
-0.2807055	必ず 、
-0.9334961	必死 で
-0.9334961	必死 の
-0.6324661	必要 も
-0.2807055	忘れ て
-0.6324661	忠誠 を
-0.6324661	思い で
-0.6324661	思うつぼ だ
-0.6324661	思え ば
-0.2272196	思っ た	0.3645963
-1.109587	急い だ
-0.4567968	急い で
-0.2807055	急ぎ に	-0.1556062
-0.6324661	急ぐ 必要
-0.6324661	急げ 、
-0.6324661	怪しく 思っ
-0.6324661	恐ろしく 大きい
-0.6324661	恥 で
-0.6324661	恥ず べき
-0.6324661	恨み 申し
-0.6324661	息 を
-0.6324661	悔しい の
-0.6324661	悔しく 、
-0.6324661	悔し泣き に
-0.6324661	悠々 と
-0.2272196	悪い 夢	0.003532861
-0.6324661	悪びれ ず
-0.9334961	悪徳 だ
-0.9334961	悪徳 者
-0.9334961	悪心 を
-0.9334961	悪心 をもって
-0.6324661	悪魔 の
-0.6324661	悲しい 顔
-0.6324661	情 という
-0.6324661	情け を
-0.6324661	情けない 。
-1.234526	愛 だの
-0.3521583	愛 と	-0.09273625
-0.6324661	愛する 友
-0.9334961	感じ 、
-0.9334961	感じ た
-0.6324661	態 な
-0.6324661	憎ん だ
-0.6324661	憐愍 を
-0.6324661	憫笑 し
-0.6324661	懐中 から
-1.109587	手 から
-0.4567968	手 を
-0.2807055	打た れ	0.1209325
-0.6324661	打ち 荒れ
-0.6324661	打ち破る ため
-0.6324661	打っ た
-0.6324661	払い 、
-0.6324661	承諾 し
-0.6324661	投げ出し て
-0.6324661	投じ 、
-0.6324661	折っ た
-0.6324661	折り曲げ 、
-0.6324661	抜け て
-0.6324661	抱い て
-0.6324661	抱き合い 、
-0.6324661	抱き締め た
-0.9334961	抱擁 する
-0.9334961	抱擁 でき
-0.6324661	押し て
-0.6324661	押しのけ 、
-0.6324661	押し寄せ 渦巻き
-0.6324661	押し流さ れ
-0.6324661	拒め ば
-0.6324661	拳 で
-0.6324661	持ち物 全部
-0.6324661	挙げ させ
-0.6324661	挙げる 。
-0.2807055	振っ て
-0.6324661	振り上げ た
-0.6324661	捕まえ て
-0.6324661	捕縛 さ
-0.6324661	揺すぶっ て
-0.6324661	撃ち 倒し
-0.9334961	支度 の
-0.9334961	支度 も
-0.6324661	放さ ぬ
-0.6324661	放し て
-0.6324661	放せ 。
-0.2807055	放っ て
-0.6324661	放免 する
-0.6324661	政治 が
-0.6324661	故郷 へ
-0.6324661	敏感 で
-0.9334961	救う ため
-0.9334961	救う の
-0.2807055	教え て
-0.6324661	斜陽 は
-0.6324661	断ち割っ て
-0.6324661	新婦 の
-0.6324661	新郎 新婦
-0.6324661	旅人 と
-1.808557	日 が
-0.9261895	日 の
-0.5596473	日 は	-0.2113196
-0.9261895	日 め	0.08801125
-1.808557	日 も
-0.6324661	日暮れ まで
-0.2272196	日没 まで	-0.3360742
-0.9334961	日間 だけ
-0.9334961	日間 の
-0.6324661	日限 を
-0.6324661	早い ほう
-0.6324661	早かっ た
-0.6324661	早く その
-0.2807055	昇っ て	-0.07827625
-0.2807055	明くる日 の
-1.331436	明日 、
-1.331436	明日 だ
-0.6786456	明日 に	-0.147373
-1.331436	明日 の
-0.6324661	星 で
-0.6324661	昨日 の
-1.109587	時 が
-0.4567968	時 は
-0.6324661	暑く なっ
-0.9334961	暗い の
-0.9334961	暗い 疑惑
-1.234526	暮らし だ
-0.5817355	暮らし て
-1.234526	暮らし を
-1.410617	暴君 の
-0.7578268	暴君 は
-0.5282496	暴君 ディオニス	0.08801125
-0.6324661	暴虐 の
-0.9334961	最も 、
-0.9334961	最も 恥ず
-0.2272196	最後 の
-0.9334961	望み た
-0.9334961	望み は
-0.6324661	望ん で
-0.6324661	期待 し
-0.6324661	木々 の
-0.6324661	未明 メロス
-0.9334961	未練 の
-0.9334961	未練 は
-0.6324661	本当に よい
-1.586709	村 から
-1.586709	村 で
-1.586709	村 に
-0.7043408	村 の
-1.586709	村 へ
-0.9339181	村 を
-0.2272196	村人 たち	0.159955
-0.4567968	来 た
-1.109587	来 ます
-0.6324661	来れ ば
-0.6324661	枝 も
-0.6324661	柱 が
-0.6324661	根 も
-0.6324661	根性 が
-0.2807055	棍棒 を
-0.6324661	森 を
-0.9334961	楼 が
-0.9334961	楼 は
-0.6324661	楽しみ で
-1.477564	様 。
-0.8247736	様 の
-0.3867001	様 を	-0.2834711
-0.3521583	様子 で
-1.234526	様子 を
-0.6324661	横切り 、
-0.6324661	樹木 の
-0.6324661	橋 を
-0.6324661	橋桁 を
-0.6324661	欲しい の
-0.6324661	欺い た
-0.6324661	欺か なかっ
-0.6324661	欺く つもり
-0.2807055	歌 を
-0.9334961	歌い 、
-0.9334961	歌い だし
-0.6324661	歌っ て
-0.6324661	歓喜 に
-0.6324661	歓声 が
-0.6324661	歔欷 の
-0.6324661	止まっ た
-0.6324661	正当 の
-0.4567968	正直 な	-0.1270438
-1.109587	正直 者
-1.109587	正義 だの
-0.4567968	正義 の
-0.6324661	歩 歩い
-1.410617	歩い た
-0.1262524	歩い て
-0.6324661	歩き だし
-0.6324661	歩ける 。
-0.6324661	歩こ う
-0.9334961	歳 、
-0.9334961	歳 。
-0.6324661	死 ぬる
-0.2272196	死な せ	-0.1820691
-1.234526	死ぬ こと
-1.234526	死ぬ ぞ
-1.234526	死ぬ の
-1.234526	死ぬ より
-0.9334961	死ん だ
-0.9334961	死ん で
-0.6324661	死刑 に
-0.6324661	死力 を
-0.6324661	残 光
-0.6324661	残し て
-0.6324661	残ら ず
-0.6324661	残る 者
-0.6324661	残虐 な
-0.6786456	殴っ た	0.3053857
-0.4490683	殴っ て	-0.06460482
-0.6324661	殴り 倒し
-0.0470712	殴れ 。	-0.02498813
-0.5951963	殺さ れ
-0.3867001	殺さ れる	0.2693317
-1.535556	殺し た
-0.2131839	殺し て	-0.1113008
-1.535556	殺し ます
-0.9334961	殺す ぞ
-0.9334961	殺す の
-0.6324661	母 も
-0.6324661	民 の
-0.7578268	気 が
-1.410617	気 に
-1.410617	気 の
-0.7578268	気 を
-0.6324661	気がかり も
-0.6324661	気がつか ない
-0.6324661	気の毒 だ
-0.6324661	気味 が
-0.9334961	気持ち で
-0.9334961	気持ち を
-1.109587	水 が
-1.109587	水 の
-1.109587	水 を
-0.6324661	水源 地
-0.2807055	永遠 に
-0.6324661	氾濫 し
-0.6324661	汗 を
-1.109587	決して し
-1.109587	決して 寂しい
-1.109587	決して 空虚
-0.6324661	決まっ て
-0.2807055	決意 し	0.07120626
-0.1436621	沈ま ぬ	0.04915362
-0.2807055	沈む 。
-0.2807055	沈ん で
-0.6324661	没し 、
-0.6324661	泉 に
-1.234526	波 に
-1.234526	波 は
-0.5817355	波 を
-0.9334961	泣い た
-0.9334961	泣い て
-0.9334961	泣き だし
-0.9334961	泣き な
-0.6324661	泳い だ
-0.9334961	泳ぎ きり
-0.9334961	泳ぎ きる
-0.6324661	流す よう
-1.331436	流れ て
-1.331436	流れ に
-1.331436	流れ は
-0.6786456	流れ を
-0.6324661	流れる 音
-0.6324661	浮かべ て
-0.6324661	浴びせ た
-0.6324661	海 の
-0.6324661	消え て
-0.6324661	消えよ う
-0.6324661	涙 を
-0.6324661	深い 眠り
-0.6324661	深かっ た
-0.6324661	深く 眠っ
-0.6324661	深夜 、
-0.6324661	清らか な
-0.6324661	清水 が
-0.6324661	渡し守 の
-0.6324661	渦巻き 引きずる
-0.6324661	湧き出 て
-0.6324661	満天 の
-0.6324661	満身 の
-0.6324661	満面 に
-0.6324661	滾 々
-0.6324661	潜り込ん で
-0.6324661	潺 々
-0.6324661	澄まし た
-0.6324661	激しく 躍り
-0.2807055	激怒 し	0.07120626
-0.6324661	激流 が
-1.410617	濁流 と
-1.410617	濁流 に
-1.410617	濁流 は
-0.5282496	濁流 を
-0.6324661	灼熱 の
-0.6324661	災難 、
-0.6324661	無二 の
-0.6324661	無心 に
-0.6324661	無理 に
-0.6324661	無言 で
-0.9334961	無駄 で
-0.9334961	無駄 に
-0.6324661	照っ て
-0.9334961	照覧 、
-0.9334961	照覧 あれ
-0.6324661	燃える ばかり
-0.6324661	父 も
-1.234526	牧人 で
-1.234526	牧人 は
-1.234526	牧人 も
-1.234526	牧人 を
-0.6324661	犬 を
-0.6324661	狂っ た
-0.6324661	独りよがり か
-0.6324661	独り合点 し
-0.6324661	狭い 家
-0.6324661	猛 勢
-0.6324661	猛然 一撃
-0.6324661	獅子奮迅 の
-1.91122	王 だ
-1.91122	王 と
-1.258429	王 に
-0.6623096	王 の
-0.5888475	王 は	-0.1045417
-1.91122	王 はり
-1.91122	王 を
-0.2405721	王城 に
-1.331436	王城 へ
-1.234526	王様 が
-1.234526	王様 の
-1.234526	王様 は
-1.234526	王様 万
-0.6324661	生かし て
-0.6324661	生きる 。
-0.6324661	生き延び て
-0.4567968	生まれ た
-1.109587	生まれ て
-0.6324661	生意気 な
-0.6324661	生涯 暮らし
-0.9334961	用事 が
-0.9334961	用事 を
-0.6324661	申し ます
-1.711647	男 、
-1.711647	男 だ
-1.058857	男 で	-0.1145959
-1.711647	男 な
-1.711647	男 に
-1.058857	男 の
-1.711647	男 も
-0.8292795	男 を
-0.6324661	男泣き に
-1.778594	町 で
-0.5296841	町 に	-0.03734008
-0.8962263	町 の
-1.778594	町 は
-1.778594	町 を
-1.778594	町 全体
-0.6324661	番 を
-0.6324661	疑い に
-1.109587	疑う こと
-0.4567968	疑う の
-0.4567968	疑っ た	0.3053857
-1.109587	疑っ て
-0.6324661	疑わ ず
-0.6324661	疑惑 の
-1.109587	疲れ きっ
-0.4567968	疲れ て
-1.234526	疲労 し
-1.234526	疲労 すれ
-1.234526	疲労 回復
-1.234526	疲労 困憊
-0.6324661	疾風 の
-0.6324661	発揮 し
-0.9334961	登り 、
-0.9334961	登り きっ
-0.6324661	百 匹
-0.9334961	皆 が
-0.9334961	皆 に
-0.6324661	皇后 様
-0.5282496	目 が	-0.531374
-0.7578268	目 に
-1.410617	目 の
-0.6324661	目撃 し
-0.6324661	相 会
-0.6324661	相手 に
-0.6324661	眉間 の
-0.2807055	真 の	-0.1563014
-0.6324661	真っ裸 じゃ
-0.9334961	真昼 どき
-0.9334961	真昼 に
-0.6324661	真紅 の
-0.6324661	眠っ た
-0.9334961	眠り たい
-0.9334961	眠り に
-0.6324661	眺め 回し
-0.6324661	着い た
-0.6324661	着る が
-0.6324661	瞬時 ためらい
-0.6324661	瞬間 、
-0.6324661	矢 の
-0.6324661	知っ て
-0.6324661	知ら せ
-0.6324661	知らせ て
-0.6324661	短刀 で
-0.6324661	短剣 が
-1.109587	石工 が
-1.109587	石工 も
-1.109587	石工 を
-0.6324661	破る 心
-0.6324661	破壊 し
-0.6324661	磔刑 に
-1.234526	祝宴 に
-0.5817355	祝宴 の
-1.234526	祝宴 は
-0.4490683	神 々
-0.6786456	神 も
-0.6324661	祭壇 を
-1.860489	私 が
-2.51328	私 たち
-1.630912	私 だ
-1.228915	私 に	-0.009748517
-0.8394209	私 の	-0.02216977
-0.3245111	私 は	-0.01998188
-1.860489	私 も
-0.6766936	私 を	-0.05663826
-0.6324661	私欲 の
-0.6324661	秘密 で
-0.6324661	空 を
-0.6324661	空っぽ だ
-0.6324661	空虚 な
-0.6324661	突入 し
-0.6324661	突然 、
-0.2807055	突破 し
-0.6324661	立ちすくん だ
-0.6324661	立ち上がる こと
-0.6324661	立ち去り 、
-0.6324661	立ち止まり そう
-0.6324661	立っ て
-0.9334961	立て 、
-0.9334961	立て られ
-0.2807055	竹馬 の	-0.1552397
-0.6324661	笑い 、
-0.6324661	笑お う
-1.234526	笑っ た
-0.3521583	笑っ て
-0.2807055	笑わ れる	0.1832913
-0.6324661	笛 を
-1.410617	答え 、
-0.5282496	答え た	-0.07620112
-0.7578268	答え なかっ	0.4442389
-0.6324661	精 も
-0.2807055	精いっぱい に
-0.6324661	精神 も
-1.410617	約束 し
-0.7578268	約束 の
-0.5282496	約束 を
-0.7578268	結婚式 は	0.1334491
-1.410617	結婚式 も
-0.5282496	結婚式 を
-0.6324661	絞め殺し て
-0.2807055	続け て
-0.6324661	緋 の
-1.109587	縄 は
-1.109587	縄 を
-1.109587	縄 打た
-0.6324661	繋 舟
-0.9334961	罪 の
-0.9334961	罪 は
-0.2807055	置い て
-1.331436	羊 だけ
-1.331436	羊 と
-1.331436	羊 も
-1.331436	羊 小屋
-1.331436	羊 群
-0.6324661	群 の
-1.477564	群衆 に
-0.5951963	群衆 の
-0.8247736	群衆 は	0.1334491
-1.477564	群衆 を
-0.6324661	義務 遂行
-1.234526	老爺 に
-1.234526	老爺 の
-0.5817355	老爺 は
-1.109587	考え た
-0.4567968	考え て
-1.234526	者 とかいう
-1.234526	者 として
-1.234526	者 に
-1.234526	者 の
-0.9334961	耳 に
-0.9334961	耳 を
-0.6324661	耳打ち し
-0.2807055	聞い て
-0.6324661	聞か ぬ
-0.6324661	聞き入れ て
-0.2272196	聞こえ た	-0.07620112
-0.6324661	肉体 の
-0.6324661	肩 を
-0.6324661	背後 から
-0.6324661	背負っ た
-0.6324661	胴震い を
-1.109587	胸 に
-1.109587	胸 の
-1.109587	胸 を
-0.4567968	腕 に
-1.109587	腕 を
-0.6324661	膝 を
-0.6324661	膨れ あがり
-0.6324661	臣 の
-0.6324661	臣下 の
-1.410617	自分 が
-0.3197533	自分 の
-1.410617	自分 を
-0.9334961	自身 の
-0.9334961	自身 を
-0.6324661	舟 は
-1.234526	花婿 として
-0.5817355	花婿 の
-1.234526	花婿 は
-1.109587	花嫁 に
-1.109587	花嫁 の
-1.109587	花嫁 は
-1.109587	若い とき
-1.109587	若い メロス
-1.109587	若い 石工
-0.9334961	若い衆 は
-0.9334961	若い衆 を
-0.6324661	茫然 と
-0.6324661	草原 に
-0.6324661	荒い 呼吸
-0.2807055	荒れ くるう
-0.6324661	華やか に
-0.6324661	萎え て
-0.2807055	落ち て
-0.6324661	落ち着い て
-0.6324661	落とし 瞬時
-0.9334961	葉 に
-0.9334961	葉 も
-0.6324661	蒸し暑い の
-0.6324661	蒼白 で
-0.6324661	薄明 の
-0.6324661	虫 ほど
-0.6324661	血 が
-0.6324661	血液 だけ
-0.2807055	行か なけれ	0.2301068
-0.9334961	行き 、
-0.9334961	行き 三里
-0.6324661	行き着く こと
-0.6324661	行き着け ば
-0.6324661	行こ う
-0.6324661	行っ て
-0.6324661	行わ れ
-0.9334961	衣装 も
-0.9334961	衣装 やら
-0.6324661	裂けめ から
-0.2807055	裏切り者 だ	0.4581747
-0.9334961	裸体 で
-0.9334961	裸体 を
-0.6324661	襲いかかり 、
-0.6324661	西 に
-0.6324661	覆い 、
-0.9334961	見 た
-0.9334961	見 られる
-0.6324661	見え ない
-0.6324661	見えすい て
-0.2807055	見える 。
-0.2807055	見せ て
-0.6324661	見せつけ て
-0.6324661	見つけ て
-0.2807055	見つめ て	-0.1335316
-0.6324661	見よ 、
-0.9334961	見る と
-0.9334961	見る もの
-0.6324661	視線 を
-0.3521583	覚め た	-0.04720535
-1.234526	覚め たら
-0.9334961	覚悟 し
-0.9334961	覚悟 で
-1.331436	言い 、
-1.331436	言い かけ
-1.331436	言い たい
-1.331436	言い たく
-1.331436	言い はっ
-1.331436	言う な
-1.331436	言う に
-1.331436	言う まま
-0.6786456	言う わい	0.02880062
-0.6324661	言え ！
-0.6324661	言える 。
-0.4567968	言っ た	0.3053857
-1.109587	言っ て
-0.6324661	言わ ず
-0.2807055	訪ね て
-0.6324661	訪れ た
-0.2272196	許し て
-0.6324661	許せ 、
-0.6324661	誇っ て
-0.6324661	誇り を
-0.6324661	誇る べき
-0.6324661	語っ た
-0.6324661	語勢 を
-0.2807055	誠 の
-0.6324661	説き伏せ た
-0.9334961	誰 だ
-0.9334961	誰 も
-0.6324661	調え 、
-0.6324661	調べ られ
-0.6324661	警 吏
-0.6324661	議論 を
-0.9334961	豪雨 で
-0.9334961	豪雨 を
-0.9334961	負け た
-0.9334961	負け ぬ
-0.9334961	買い に
-0.9334961	買い 集め
-0.6324661	買い物 を
-0.6324661	買っ て
-0.6324661	資格 さえ
-0.6324661	賢 臣
-0.5817355	質問 し	0.07120626
-0.5817355	質問 を
-0.6324661	赤い 光
-0.6324661	赤く 大きい
-0.9334961	赤らめ た
-0.9334961	赤らめ て
-0.6324661	赤面 し
-0.3100939	走っ た	0.0673949
-0.5416021	走っ て	-0.007250007
-0.6324661	走ら なけれ
-0.4567968	走り ながら
-1.109587	走り 出
-0.9796755	走る が	-0.1372549
-0.383556	走る の	-0.3060513
-1.632466	走る より
-0.6324661	走れ ！
-0.6324661	走れる よう
-0.9334961	起き 、
-0.9334961	起き て
-0.6324661	起き上がっ て
-0.6324661	起こっ た
-0.6324661	越え 山越え
-0.6324661	足 は
-0.9334961	足もと で
-0.9334961	足もと に
-0.6324661	路傍 の
-0.9334961	跳ね 起き
-0.9334961	跳ね 飛ばし
-0.6324661	踏ん だ
-0.6324661	蹴飛ばし 、
-0.6324661	躍り くるう
-0.6324661	躍り出 た
-0.9334961	身 を
-0.9334961	身 近
-0.5282496	身代わり の	-0.09602904
-0.5282496	身代わり を
-0.6324661	身体 疲労
-0.9334961	身支度 は
-0.9334961	身支度 を
-0.6324661	車軸 を
-0.6324661	輝い て
-0.6324661	辺り を
-0.6324661	迎える こと
-0.6324661	近 の
-0.6324661	近々 、
-0.6324661	近づき 、
-0.6324661	近寄り 、
-0.6324661	追い出す よう
-0.6324661	逃がし た
-0.6324661	逃げ て
-0.6324661	途中 で
-0.6324661	速く 走っ
-0.6324661	遂行 の
-0.6324661	遅かっ た
-0.8247736	遅れ たら	0.7964214
-0.1931992	遅れ て	-0.04821413
-0.6324661	遊ん で
-0.6324661	運命 な
-0.6324661	過ぎ て
-0.9334961	道 で
-0.9334961	道 を
-0.6324661	道行く 人
-0.6324661	邪悪 に対して
-0.9334961	邪知 を
-0.9334961	邪知 暴虐
-0.6324661	都 の
-0.2807055	酒宴 の
-0.6324661	酔っ て
-0.6324661	醜い 裏切り者
-0.6324661	里 離れ
-0.6324661	里程 の
-0.6324661	重ね た
-1.109587	野 に
-0.4567968	野 を
-0.6324661	野原 で
-0.6324661	鎮め たまえ
-0.6324661	長い ため息
-0.6324661	長く この
-0.6324661	開始 し
-1.410617	間 、
-1.410617	間 が
-0.7578268	間 に	-0.1181117
-1.410617	間 の
-1.410617	間 は
-0.9334961	間に合う 、
-0.9334961	間に合う 。
-0.6324661	間に合っ た
-0.2807055	間に合わ ぬ
-0.6324661	間近 な
-0.6324661	闘争 を
-0.6324661	降っ て
-1.109587	降り た
-1.109587	降り だし
-1.109587	降り て
-0.6324661	限り に
-0.6324661	除か なけれ
-0.6324661	陽気 に
-0.6324661	隅 に
-0.6324661	隊 の
-0.6324661	隙 に
-0.6324661	隣村 に
-0.6324661	集まり 、
-0.6324661	集め 、
-0.6324661	離れ た
-1.234526	雨 が
-0.3521583	雨 も
-0.6324661	雨中 、
-0.6324661	雲 を
-0.2272196	静か に
-0.6324661	面前 で
-0.6324661	韋 駄
-1.109587	音 が
-0.4567968	音 高く
-0.6324661	響き を
-0.7578268	頃 、
-1.410617	頃 で
-0.7578268	頃 に	-0.1111256
-1.410617	頃 は
-0.6324661	頑強 で
-0.0470712	頬 を	-0.10984
-0.9334961	頭 は
-0.9334961	頭 を
-0.6324661	頼む 、
-0.2807055	頼ん だ	0.4581747
-0.6324661	額 の
-1.234526	顔 し
-1.234526	顔 は
-0.5817355	顔 を
-0.2807055	願い を
-0.6324661	願っ た
-1.109587	風 とともに
-1.109587	風 の
-1.109587	風 態
-0.9334961	飛ばし 、
-0.9334961	飛ばし て
-0.6324661	飛び越え 、
-0.6324661	飛び込み 、
-0.6324661	飛鳥 の
-0.6324661	飲ん だ
-0.6324661	飾り 、
-0.6324661	首 を
-0.6324661	馬 の
-0.6324661	駄 天
-0.2807055	駆け 降り
-0.6324661	駆け抜け 、
-0.6324661	騒ぎ が
-0.2807055	驚い た	0.3053857
-0.6324661	驚き 、
-0.6324661	高々 と
-1.234526	高く メロス
-0.5817355	高く 昇っ	0.1645315
-1.234526	高く 私
-0.6324661	鳴り響く ほど
-0.6324661	黒い 風
-0.6324661	黒雲 が
-0.6324661	黙れ 。
-0.4627373	！ 　	0.02141972
-0.4272825	！ 」	-0.2116612
-0.9334961	？ 　
-0.9334961	？ 」

\3-grams:
-1.060211	！ 　 私
-1.391204	ああ 、 あなた
-1.391204	ああ 、 もう
-0.8171728	いや 、 まだ
-0.5161428	う 、 と
-0.9932641	か 、 わし
-0.9931042	が 、 私
-0.6922341	くれ 、 と
-0.9932641	それから 、 妹
-1.118203	たら 、 あの
-1.118203	たら 、 私
-1.817173	て 、 </s>
-1.047182	て 、 メロス
-1.817173	て 、 町
-1.118203	と 、 わし
-0.6922341	ぬ 、 と
-2.325703	は 、 おまえ
-2.325703	は 、 きっと
-2.325703	は 、 これ
-1.819083	は 、 それ
-2.325703	は 、 まだ
-2.325703	は 、 みじん
-2.325703	は 、 やめ
-2.325703	は 、 わし
-2.325703	は 、 メロス
-1.781475	は 、 人
-1.781475	は 、 今
-2.325703	は 、 夜
-2.325703	は 、 村
-2.325703	は 、 永遠
-2.325703	は 、 王
-2.325703	は 、 雨
-1.516143	も 、 メロス
-0.8171728	もう 、 どう
-1.470385	を 、 三
-1.470385	を 、 今
-1.445562	ある 。 </s>
-0.9013339	ある 。 メロス
-0.7500662	いる 。 私
-1.294294	う 。 そう
-1.294294	う 。 私
-0.7876747	か 。 」
-0.9140828	くれ 。 きみ
-0.515983	ぞ 。 」
-0.8269998	た 。 </s>
-1.107826	た 。 「
-1.820104	た 。 」
-2.364332	た 。 きみ
-2.364332	た 。 そうして
-1.820104	た 。 その
-1.857713	た 。 セリヌンティウス
-0.8939466	た 。 メロス
-2.364332	た 。 暴君
-2.364332	た 。 祝宴
-1.857713	た 。 私
-2.364332	た 。 結婚式
-2.364332	た 。 老爺
-2.072445	だ 。 「
-1.033607	だ 。 」
-2.072445	だ 。 おまえ
-2.072445	だ 。 そんなに
-2.072445	だ 。 メロス
-2.072445	だ 。 人
-2.072445	だ 。 婿
-2.072445	だ 。 王
-0.90309	だ 。 私
-1.118203	です 。 」
-0.9140828	な 。 」
-1.646477	ない 。 」
-1.646477	ない 。 ああ
-1.646477	ない 。 ただ
-0.6542587	ぬ 。 」
-0.9931042	ぬ 。 おまえ
-1.537332	ぬ 。 メロス
-0.7500662	ます 。 」
-1.294294	ます 。 私
-0.9932641	よ 。 」
-0.9932641	れる 。 私
-0.2902201	を 。 それから
-0.9140828	殴れ 。 私
-1.352126	<s> 「 ああ
-1.896354	<s> 「 いや
-1.896354	<s> 「 おまえ
-1.896354	<s> 「 なん
-1.896354	<s> 「 メロス
-1.896354	<s> 「 待て
-1.896354	<s> 「 私
-1.329056	。 「 私
-0.1383027	。 」 </s>
-1.411248	。 」 と
-1.185485	。 」 メロス
-0.369855	！ 」 と
-0.04575749	。 ああ 、
-0.3105534	「 ああ 、
-0.04575749	で あっ た
-0.6922341	、 あなた は
-1.060211	、 あの かた
-0.5739749	が ある 。
-0.6115834	が ある の
-0.03218468	で ある 。
-0.1139434	て い た
-1.329056	て い ない
-0.1440921	が いい 。
-0.6922341	でも いい 。
-0.1480062	と いう の
-0.5161428	「 いや 、
-0.4771213	て いる 。
-1.733627	て いる だろ
-1.227007	て いる の
-1.733627	て いる らしい
-1.733627	て いる 人
-1.733627	て いる 様子
-0.1101906	だろ う 。
-0.5161428	ぬ うち に
-0.5161428	で うなずき 、
-1.060211	、 おまえ の
-1.215113	。 おまえ に
-0.7084934	。 おまえ の
-0.9140828	た か 、
-0.369855	た か 。
-0.5161428	どう か 、
-0.5161428	ない か 。
-0.6922341	の か 。
-0.8171728	あの かた を
-0.2902201	だ から 、
-0.4074634	こと が でき
-0.1101906	た が 、
-0.369855	だ が 、
-0.6922341	の が 、
-0.5161428	人 が ある
-0.6922341	命 が 大事
-0.1480062	目 が 覚め
-0.5161428	走る が いい
-0.06694679	て き た
-0.5161428	、 きみ は
-0.9932641	。 きみ が
-0.5161428	は きみ と
-0.05115252	て ください 。
-0.9261575	て くれ 、
-0.7003946	て くれ 。
-0.9637659	て くれ た
-0.369855	て こい 。
-1.060211	、 ここ で
-1.060211	、 ここ に
-1.060211	、 ここ まで
-0.4074634	で ござい ます
-0.5161428	信頼 さ れ
-0.3105534	そう し て
-0.4866447	に し て
-0.2729449	を し て
-0.5161428	決意 し た
-0.5161428	激怒 し た
-0.5161428	質問 し た
-0.2729449	て しまっ た
-0.1480062	、 すぐ に
-0.1480062	死な せ て
-0.1480062	、 そう し
-0.2729449	。 そうして 、
-1.060211	、 その 男
-1.060211	、 その 身代わり
-0.670885	、 それ から
-1.215113	、 それ で
-1.215113	、 それ は
-0.1440921	。 それから 、
-0.3734321	あっ た 。
-1.256505	あっ た の
-0.1762742	い た 。
-0.2554554	き た 。
-0.7876747	き た の
-0.8171728	くれ た 。
-0.1191864	し た 。
-1.613053	し た とき
-1.613053	し た の
-0.2729449	しまっ た 。
-0.5161428	しわがれ た 声
-0.5161428	だし た 。
-0.6922341	でき た の
-0.1305167	なかっ た 。
-0.4866447	なっ た 。
-0.3105534	まし た 。
-0.3993646	れ た 。
-0.6922341	出 た 。
-0.6922341	思っ た 。
